0.024905415
-0.07282293
0.13618982
0.08124155
0.027906492
-0.08901039
-0.045390077
0.059039816
0.00419958
0.04927513
-0.037044168
0.016540209
0.052939482
-0.028880412
0.12182238
0.12043253
0.109741226
-0.046414476
-0.029419333
0.109811746
0.120581426
-0.071647264
-0.07562392
0.096270464
-0.08995217
-0.051346064
0.041193
-0.041751996
-0.036868684
-0.038198482
0.019651977
-0.023083573
-0.11092763
-0.069298826
-0.028295947
0.13716058
-0.078051545
-0.09396342
-0.00080966525
-0.023696989
0.11903464
-0.08345726
-0.049066834
-0.064179584
0.091513515
-0.11285643
0.07005684
-0.08763109
-0.06847146
0.010307318
-0.029064761
0.11909941
-0.038862713
0.08263153
-0.026056634
0.094721586
-0.021558437
0.064290114
-0.00079046586
-0.02344371
0.07565273
0.020235742
-0.000839772
0.051812075
-0.11681625
0.020379445
-0.048402324
0.13447085
-0.1058149
0.022852732
-0.029143916
0.0030239366
0.01741611
-0.0736147
-0.10621334
-0.009189375
-0.071450494
-0.06903868
0.002305903
-0.08948395
0.042649552
-0.054781485
0.028180538
-0.050045528
-0.06405129
-0.024636172
-0.06824495
0.0029112601
-0.10418264
0.06930673
-0.08562863
0.12040913
0.11272707
-0.041531883
0.001514145
-0.025104955
-0.112516336
0.07077617
-0.05873178
-0.0515653
0.10496283
-0.07583349
0.060188025
-0.023507806
-0.036926087
0.062689535
0.062315132
-0.00017150382
0.11029691
0.0012719083
-0.035569467
-0.01959937
-0.06665988
-0.09309355
-0.005877205
0.055622477
-0.01899504
0.03434081
-0.039505575
0.09561293
-0.0866376
0.057068396
0.037576314
0.0037594663
0.024748556
0.040372968
-0.033596758
-0.0370035
0.07871589
-0.069030575
0.12239689
0.02376552
-0.019204656
0.041063983
0.0074495724
-0.09658136
-0.08641092
-0.07415232
0.034265324
0.07421146
0.098116815
0.012968103
-0.07660265
0.028942185
0.046022028
-0.070595466
0.0077259364
-0.012439968
0.04752163
-0.011219591
-0.07012808
-0.099921316
-0.085065044
-0.050612677
-0.12694
0.020958338
0.06294247
0.010223126
0.0061789993
0.13668565
-0.0961335
-0.09331161
0.10106747
-0.06111987
0.11265587
0.03458428
-0.076293625
-0.1216474
0.043035563
0.02904767
0.0063429736
-0.10308523
0.027189706
0.102544345
-0.04636397
0.08556714
-0.04848515
0.09428137
0.10890403
0.075911984
-0.012647011
0.019055797
-0.019445714
0.025549816
-0.03711435
0.1189535
-0.098989874
-0.079991154
0.013093993
-0.050034292
-0.060368747
-0.01121874
-0.05242885
0.086981334
0.070994176
-0.108618215
0.061860777
-0.10187206
0.074033715
0.027944867
-0.015305735
-0.103541575
-0.09892814
0.019214066
-0.05561371
-0.02607995
0.056276064
-0.0033433214
-0.021321598
-0.07671364
-0.059986234
0.10959566
-0.114597686
-0.04250673
-0.06689653
-0.02823992
0.0629519
-0.05109885
-0.041551523
-0.048724566
0.05581922
0.08645659
0.019433305
0.07650463
-0.110609375
0.06851058
0.104225755
-0.10898519
0.061913334
-0.054551106
0.08731998
-0.048479352
0.075927295
0.11870257
-0.033462506
0.048274104
-0.07959992
-0.009311046
0.07426814
-0.058080774
0.04693107
-0.0025992338
-0.010695815
0.0010222682
-0.05361629
0.04064884
0.03555945
-0.0031138018
-0.08755672
0.07249836
0.0633444
0.099258095
-0.056394298
-0.037714433
0.08823253
-0.015955059
-0.10732308
-0.027125167
0.08903768
-0.12595421
-0.013178017
0.10462661
-0.07651307
-0.00077642535
0.08428045
-0.030142995
-0.10017709
-0.062048044
-0.0744026
-0.10515422
0.0014242681
0.08638974
0.120881185
0.07982778
-0.011019463
0.065389745
-0.07624394
0.083332494
-0.0013951038
0.08674052
0.09485103
0.027989827
0.084110014
-0.020997394
-0.080718875
0.09673407
0.11953429
0.05388178
-0.026951186
-0.013686355
0.06869161
0.1289072
0.04283874
0.06032864
-0.07511261
-0.083462685
0.0009286644
-0.013704999
0.07714878
0.11726454
0.044475857
-0.0021378163
-0.14925866
-0.025034286
-0.073518686
0.04565146
0.0479738
-0.070426635
0.12295569
0.07395019
-0.08300036
-0.019582748
-0.00033945253
-0.021349026
0.0646381
0.026403433
-0.024619427
0.0712567
-0.034365945
0.04262694
-0.010087906
-0.0027712525
0.016498104
0.07103013
-0.061559547
-0.048045106
0.045625914
-0.114145525
-0.03566658
-0.046323106
-0.013455037
0.022398908
-0.005532172
-0.09705677
0.08854785
-0.0028664304
0.022590123
-0.055338893
0.10636114
0.02187084
0.032290462
0.07244558
-0.08626962
0.09411397
-0.021205861
0.12900071
0.051864658
0.046220437
0.0056860684
-0.0018988146
-0.06971988
0.014765617
0.07841167
0.0067419307
-0.06891599
-0.093049124
0.09013858
0.02088905
-0.112354524
-0.06758305
-0.054027006
-0.092041284
0.021188298
-0.08097547
0.06366606
-0.10441244
-0.0397785
0.101800874
0.016542872
-0.124998
0.040503092
0.048890803
0.043905374
0.10330836
0.08298799
0.021722596
-0.016619844
0.081505634
-0.038563456
-0.03904878
0.013067461
-0.054404877
-0.07188976
-0.020856353
-0.01718165
0.047306594
0.05062275
-0.0779568
-0.0038638916
0.0073587447
-0.04210855
-0.045348898
0.029113568
0.061251648
-0.10230461
0.052454393
0.06385202
-0.011854741
-0.011071573
0.13689458
0.05002377
0.10633762
0.0136927795
0.060733903
-0.05399364
-0.052635558
-0.067113526
-0.10677013
0.016363122
-0.02624305
0.10104035
-0.10445658
-0.10472433
0.015822867
-0.09358487
0.12378971
0.10332858
-0.07967639
-0.040869843
-0.0032552865
0.010379978
0.028296707
0.06936022
-0.11102072
-0.03733323
0.03322525
-0.078477345
0.094718106
0.09628348
-0.047298733
0.043980792
-0.051234566
-0.037619412
0.098846
0.024332112
-0.11087039
0.0741978
-0.090435244
0.07483726
0.13884404
-0.056655854
0.034142643
0.058034625
0.11175333
0.026629938
-0.042661715
0.030182412
-0.10620079
-0.01362161
-0.0513153
-0.06084456
-0.14170898
-0.09336737
0.09733276
0.03428664
-0.03368953
-0.011883824
0.018937534
0.078413956
-0.09110731
-0.02613072
0.035083953
0.07172982
0.07080863
0.11900042
-0.041349
-0.08244564
-0.07394204
-0.07528982
-0.052137304
-0.04218498
0.0041419677
0.10837934
0.10993174
-0.104875624
0.03784139
-0.067327105
-0.05652495
0.10722355
0.073994204
0.103137776
0.11377491
0.07297551
-0.09869928
-0.11351399
-0.08875192
0.016988235
0.03346475
-0.0015610524
-0.047138754
0.07599962
0.009047969
-0.10587456
0.065016836
0.051737696
0.12914203
0.021614827
-0.0030318676
0.033659954
-0.030305764
-0.044231612
0.056370813
-0.050968792
-0.019220017
0.018152535
-0.10254088
-0.08027828
0.1282583
-0.0973445
-0.09796332
-0.06733859
0.10807735
0.076584265
0.123925254
0.06761627
-0.06156139
-0.0826051
-0.083046444
-0.058633823
-0.0542685
0.10156336
0.0342485
0.11863726
-0.08474745
-0.06324672
0.022642931
-0.05090946
0.023956688
-0.027605694
0.096904166
0.00074327015
-0.027813397
0.02094937
0.037219632
0.11434238
-0.101053715
-0.043389235
0.104876
-0.008556583
-0.044342022
0.004044399
-0.0145086795
0.032756615
-0.065528706
-0.013849359
0.07188792
-0.026144456
0.029291613
-0.027138397
0.06293604
-0.068165146
0.09800897
-0.09072732
0.032807633
0.12484142
-0.09160696
0.057674203
-0.08083454
0.016546281
-0.017478272
-0.0072199996
0.06002405
-0.11742434
0.00067368866
0.012540183
0.08862394
-0.013505499
0.082657404
0.12932998
0.053628303
-0.08824147
0.009013249
-0.066402905
-0.016509216
0.007151694
0.043949936
-0.023684096
-0.0314019
0.08288121
0.08313923
0.09442633
0.04093135
0.08813237
0.019599931
0.0872888
0.109572686
0.06973166
0.11185647
-0.097457014
0.11530619
-0.020104164
0.111642085
0.10456811
0.090889856
-0.08706945
0.054302823
-0.092785016
-0.09431032
-0.05844603
-0.10787753
0.068632394
-0.037121054
-0.021830078
-0.0782991
-0.08090963
-0.004542949
0.045724027
0.12135063
-0.09779427
-0.03682248
0.07947922
-0.11027361
0.02421934
0.052228983
0.03524233
0.031613115
0.089828156
-0.064838074
0.04045932
-0.0019301877
-0.11402754
0.11931338
-0.05552607
-0.10420076
0.06933511
0.11334754
-0.008853912
-0.10737094
0.07762192
-0.10622
-0.03477334
-0.061135434
0.10813193
0.11265888
0.033007275
-0.043784786
-0.023179363
-0.030111605
-0.099225245
-0.0039029284
-0.08057296
-0.089108184
0.119522855
-0.07467758
0.055416256
-0.12915754
0.03526923
0.0052226465
0.098340414
-0.02209324
-0.09842833
-0.06707532
-0.08396074
-0.035123296
0.09998629
0.017913489
-0.008062878
-0.13693322
0.089549065
0.022096075
0.016880589
-0.07479715
-0.116713
0.050569378
0.013701445
0.09606376
-0.11431588
-0.092336625
-0.0055881008
-0.05629083
-0.0052509457
-0.09289124
0.04031442
0.042310104
0.038649496
0.054352686
-0.054061297
0.054114956
0.024097718
-0.09690106
0.008755511
-0.09909562
0.11175665
-0.019958552
0.10187016
-0.021844488
0.07133875
0.055831835
-0.043628354
-0.0036815542
0.0006950641
-0.0195594
0.12032425
0.049797323
0.09547463
-0.086679995
-0.06973549
-0.0020433895
0.1080894
-0.019857604
0.0867249
0.034465477
0.0058621513
-0.039054707
0.097948514
0.104063526
0.10878425
0.060203467
0.10683872
-0.08228436
-0.0057685487
-0.016207198
0.07693665
-0.06688687
-0.10845925
-0.00032824007
-0.094234526
-0.075434454
-0.026297083
-0.013407664
0.11140148
0.085478686
0.057776093
0.010634706
-0.08153656
0.09876317
0.11550626
0.0017641134
0.10631155
-0.02119921
0.039980203
-0.03065851
-0.042096246
-0.009151318
0.016285185
0.0767363
0.017969696
-0.015100574
-0.023142919
0.0013751115
0.039329678
0.068760015
0.008025142
0.029637914
0.07946981
0.116246246
-0.01154444
-0.036035422
0.0854658
-0.025943343
0.11731367
-0.06972945
0.09687055
0.05013118
0.001411061
0.04482063
-0.017423723
0.054320488
0.006790952
0.07592946
0.04367395
0.03569116
-0.018168204
-0.0044917897
0.052926872
0.09876476
0.027212642
0.102339186
0.073753215
-0.009989244
0.05426801
-0.06364307
0.1173788
-0.10215647
0.071938165
-0.022392284
-0.11066985
0.02375922
0.078521624
-0.051372796
0.10449317
0.07562328
0.021786902
-0.009992563
-0.043212116
-0.01086487
0.065662116
-0.10649147
0.09542279
-0.038100712
0.10422674
-0.036760904
-0.022612618
0.019623218
-0.0019001635
0.07778016
-0.013699796
-0.06976592
0.110488445
-0.10844348
-0.116153404
0.046874512
0.10745282
-0.032721233
0.039689943
-0.0871046
0.045039248
-0.07745253
0.07328735
0.12558284
-0.08387759
0.038095884
-0.07959874
-0.034944136
0.01991922
0.031204022
-0.10067806
-0.09420967
0.028444128
-0.07556329
0.05442278
0.07986069
0.006840181
0.12860605
-0.09574348
0.1372463
-0.05667945
-0.027423326
-0.0006518543
0.07299305
-0.1122409
0.011080099
-0.02022629
-0.0819528
0.07942275
-0.097728595
0.08570085
0.12026185
0.084093384
0.11917189
0.0617051
0.10782042
-0.028506577
0.016843058
0.10014402
0.014824244
-0.0347608
-0.04998229
0.015579602
-0.045836937
-0.03757407
-0.005853881
-0.074372716
-0.08884821
0.12284146
-0.00678143
-0.006568941
0.032369927
-0.10040942
-0.019242091
-0.027054012
-0.08181187
0.039387032
0.011262096
-0.115482904
-0.06476106
0.04130149
0.034411058
-0.042466465
0.049061917
-0.0775561
0.0749501
0.058878426
0.05336424
-0.07198022
-0.07706536
0.005844167
-0.11579968
-0.0043635415
0.059228092
-0.06105477
-0.058998585
-0.06515922
-0.025672005
-0.073171094
-0.065547705
-0.10940634
0.039324924
0.011441974
-0.11116685
0.06405107
0.06036704
-0.12161856
0.10200004
-0.09365468
-0.10627544
-0.054480795
0.051252864
0.00022351337
-0.00458073
0.043145496
0.016067605
0.10488916
0.10490894
-0.050074246
-0.014586889
0.05411922
0.107861996
0.06352371
-0.09149473
0.036527697
-0.067595564
0.13730678
0.086062826
0.07395274
0.033771146
0.046456307
0.028554197
0.10704474
-0.07452954
-0.04419703
0.047476407
-0.018189073
0.11771672
0.06780915
-0.10409444
0.11599451
-0.098239906
0.108764976
0.11119703
0.09682738
0.09158583
0.029795429
-0.009390599
0.025184626
0.09442885
-0.092379555
-0.05975369
0.028881619
0.023425197
0.051945813
-0.0035747094
-0.11127764
0.015541723
0.045589298
0.15997751
-0.0017634069
0.07672434
-0.02317964
-0.059482224
-0.09575047
0.07337275
-0.048191924
-0.08169502
-0.052203253
0.05946472
-0.020037834
0.03482068
-0.046491016
-0.083985195
-0.077039875
0.05673281
-0.06902365
-0.05123603
-0.10292012
0.058934305
0.09304997
0.070204824
-0.023418795
-0.11711439
0.012813509
0.012706145
0.13326205
-0.11176361
-0.024556635
0.03149615
-0.07890082
0.04568937
0.0021395304
0.029357105
0.0097808335
0.038477667
-0.030171102
-0.112686634
-0.013595645
0.029721165
0.10022802
-0.04334486
-0.009642158
0.019781182
0.021647226
0.012050332
-0.02373651
-0.052108046
0.0074800197
0.06800072
-0.0021635143
-0.07250865
0.10457091
-0.0061080386
0.02716828
0.11204163
0.05470642
0.0024917321
-0.004327224
-0.08082465
0.09677263
0.087616384
-0.07325583
-0.1547208
-0.06089222
-0.01623709
0.057166222
-0.023503348
-0.06949083
-0.13011688
0.03540904
0.025082536
-0.06582576
-0.07501636
0.07357687
0.059562728
0.022500373
0.11452116
0.098685786
0.056583997
-0.024122162
-0.03855342
0.097457215
-0.065711975
0.050221276
0.07467953
-0.08723435
-0.078764245
0.0141650615
0.007938512
-0.09669352
-0.0393666
-0.040998496
-0.037196092
0.07860498
0.0020488396
-0.13297354
-0.052079413
-0.046333946
0.018741485
-0.0062425663
0.07858174
-0.059123565
-0.009360228
0.11872634
0.09685658
0.020734353
-0.0795277
0.010292113
0.049990226
0.048471283
0.105091676
-0.010285461
-0.07261858
-0.008840584
-0.017728595
0.10956187
-0.023490004
-0.008102512
-0.086655244
-0.079065844
-0.127787
0.0073326016
0.04032846
0.08579722
0.034387615
0.077522285
0.061158158
-0.037850067
-0.0032627468
-0.008090145
0.12425254
0.026152583
-0.033188343
-0.08379387
0.022294907
-0.0998387
-0.088242434
-0.054810435
0.0906242
0.011730864
-0.11111472
-0.05725727
-0.038157247
0.021277942
-0.048703913
0.023747416
-0.07590428
0.0026911052
0.08832304
-0.09160333
0.041113395
0.11410523
0.045328114
-0.07605511
0.04271196
-0.015281516
-0.095899634
0.044837616
-0.07153507
-0.019237638
-0.1201803
-0.076172166
-0.02544393
0.06399087
0.02151281
-0.03658821
0.03663111
-0.01783915
0.019026114
-0.121784516
0.07851405
0.09266861
0.07908658
0.04877893
-0.09208777
0.07048124
0.11197754
-0.087669134
-0.025086304
0.04302306
0.09100009
0.008561704
0.064956434
0.11094405
-0.062313404
-0.019873029
-0.111515194
-0.06187674
0.105105475
-0.059182353
-0.001260616
-0.04401454
-0.063687146
-0.04516709
0.00709655
-0.044886462
0.025410037
0.0269283
-0.07228643
-0.09054677
-0.0933621
0.08287092
0.07447336
-0.10465683
-0.087140426
-0.02861133
0.005238661
-0.092652015
0.11289385
0.026184896
0.026352612
-0.1252642
0.062407866
-0.064663686
0.0061444226
0.12348695
-0.05879531
0.024723995
-0.06438928
-0.08215547
-0.08782157
-0.102560714
0.07499744
-0.11688365
-0.03644281
0.0047715786
0.0050350754
-0.012649084
0.07416275
0.070458524
0.07941903
0.01956439
-0.00419906
-0.03169991
-0.013379429
-0.030603414
0.023810053
-0.02461658
-0.08594594
0.11238181
0.054643236
0.031227356
-0.0016140649
0.034569733
0.08706915
0.05520559
-0.0951873
-0.0855017
0.09635309
0.11579204
-0.04132021
0.050674193
0.09067036
0.06018664
0.10862499
0.047073964
-0.008240213
0.07184027
0.093817696
0.009119517
0.10700728
0.029981408
0.026771868
0.08203845
0.025360819
-0.09201682
0.023729311
0.000437346
0.024738573
0.12576285
0.09893765
0.065052226
0.06138353
0.06788926
0.015305528
0.11600627
0.065118
-0.08624265
-0.044125907
0.03658071
0.048885357
0.027250322
-0.07956213
0.08473487
-0.066771254
0.026190938
0.1296186
0.091752075
0.09737958
-0.10306625
-0.11212085
0.11790036
0.031547483
0.10318405
-0.058409773
0.05530269
0.03580686
0.08878843
-0.10758518
0.071101956
-0.11433784
0.116644844
-0.08801273
-0.01030978
0.11818437
-0.10899911
0.05006467
-0.043438137
-0.026290799
-0.10563597
0.12005032
0.11679716
0.057361305
-0.08103051
-0.054787055
-0.022548398
0.12144452
-0.011268841
0.0785017
-0.10950393
-0.078112274
-0.0112569155
0.090331025
0.09409602
0.12427332
0.04248999
-0.027358485
-0.103145815
0.075473174
-0.09196671
0.006248999
-0.0024490722
-0.08153332
-0.0016373002
0.022549866
-0.01641263
0.0935802
0.03588276
-0.06302603
0.08291249
0.10716057
0.0011336323
0.019324962
-0.07841774
0.005674607
0.021746108
-0.009169705
0.04796169
0.12305513
-0.071876384
0.11653097
-0.054071523
-0.045988824
0.013955015
-0.031956717
-0.10353533
0.09540913
0.11660698
-0.04310697
0.057741344
0.071681716
0.10142041
-0.007900453
0.10945543
-0.08407687
-0.07823152
-0.09022756
0.0035877854
-0.061025895
-0.06363931
-0.13172872
-0.12066406
0.028171236
0.020688692
-0.06983865
-0.010382949
0.07069646
0.10299329
0.07677934
-0.03910784
-0.030406816
0.08051171
-0.051473953
-0.07484919
-0.030335806
-0.049170285
0.027416207
0.008396467
0.03609027
-0.039780155
0.05014647
0.008771177
0.10427115
-0.114553414
-0.07559949
-0.10991218
-0.07359074
0.098924905
-0.010023524
0.03240088
-0.056924365
0.09422666
0.05405839
0.059494425
0.00762144
0.041321233
-0.10393521
0.0033332838
0.12440495
0.03409305
0.07583601
0.03401156
0.016627954
-0.07508207
0.093346894
0.07339463
-0.10836309
0.01935883
0.021645261
-0.016710868
0.012082891
-0.019784603
0.037825894
0.04074501
0.068152055
-0.11868908
-0.10303373
0.0461819
-0.060557343
0.07034792
0.06945526
-0.04979659
0.013274381
0.042722918
-0.09820192
0.04109181
0.045429613
0.051604643
-0.06701909
-0.10309201
0.072837025
-0.011726728
0.051941447
-0.08378971
0.004310301
0.09660795
-0.02860867
0.014685702
-0.014761585
0.116991214
-0.05704377
0.071433835
0.11055129
0.065742075
0.021775221
0.11789733
-0.04612122
0.05403376
0.11510364
-0.06449528
0.104769625
0.07962982
0.018530816
0.05214698
0.090049684
0.0080865035
-0.00022076622
0.038268592
-0.026895506
0.042164225
-0.13105932
0.07076286
0.05803322
0.10992068
-0.10282717
0.059573792
0.048853375
0.14816348
0.064918466
0.008184129
-0.05315498
0.04256553
-0.04627649
-0.040765066
0.029381955
0.10767397
0.09288472
-0.041860726
-0.10200522
0.08885801
-0.07388628
0.0702787
0.051262286
0.04937524
0.12055307
-0.026957346
0.11174968
0.010198726
0.079757944
0.051662076
0.047088068
-0.12551546
-0.14635724
0.114413105
0.03796238
-0.037863985
0.032552212
0.04604092
-0.057651665
0.017705023
0.101911396
0.019663738
0.021925258
0.11589022
-0.06307562
-0.010273074
-0.014955937
0.06987747
0.086049296
-0.106785506
-0.06314127
-0.010637134
-0.04263429
0.021657556
0.012304895
0.07827286
0.035845082
0.05262906
-0.04959847
0.10423786
0.01717499
0.099771634
-0.00049697625
0.07193142
0.04933383
-0.09773958
0.10863568
-0.033543635
-0.11831266
0.06129476
-0.035968516
0.09444194
0.026853435
-0.03198266
-0.0428764
0.05796171
0.08805654
0.11918878
-0.0021580714
0.13261566
-0.06309408
-0.07462831
-0.04041119
-0.119661175
0.04462264
-0.009746973
0.041760374
-0.09932467
-0.045501377
-0.11913105
0.036678415
-0.049027197
0.050001267
-0.011063184
-0.013393761
-0.11475927
0.109274186
-0.042450346
0.106105335
0.07772823
0.068551816
0.10647152
-0.032516178
0.02827125
0.06073048
0.06582853
-0.05820576
-0.0063359723
0.032415107
-0.034186233
0.064372785
0.00846429
-0.021473622
-0.04252655
0.006939383
-0.08922396
0.06910604
-0.1047605
0.06931462
-0.086125
0.03765024
-0.07836412
-0.06839369
0.0023497618
0.011062202
-0.12025779
-0.09198803
0.09947809
-0.022702675
-0.04458801
-0.020029819
-0.0663301
-0.007195739
-0.03360988
0.0048923455
0.10831234
-0.07430865
0.08052717
-0.10676652
0.09374757
0.09525951
-0.017363027
-0.039908525
-0.055303127
-0.09303293
-0.032271214
0.075738356
0.07781408
-0.007907745
0.025073722
0.009833617
0.093302436
-0.043841798
-0.0177529
-0.07423808
-0.03703348
-0.12874532
-0.08390834
0.011273544
0.12301547
0.037075408
0.018752249
0.052185945
0.04904589
-0.09500935
-0.036645006
-0.07797824
-0.083252594
0.09286267
-0.11196646
0.06635822
0.07892662
-0.100006916
-0.0927282
-0.044067122
0.10477216
-0.09358005
0.04458195
-0.06932409
0.0056193406
0.12742503
-0.0685812
-0.10370189
0.015077766
-0.031429112
-0.102219954
0.11908267
0.10719522
-0.1026619
0.07014582
0.042589825
0.11941943
0.044776045
-0.022169935
0.025001278
0.06862955
0.05765392
-0.11867668
-0.116172224
-0.09931108
0.028067363
0.11325516
-0.00840996
-0.022818444
0.09281869
-0.0063735377
0.0976041
0.07150669
0.12916897
0.04038867
0.033015985
0.09495512
0.08594314
0.045919858
0.08076858
-0.092506096
0.078939915
-0.080849536
0.021466464
-0.075704396
0.07301821
-0.10306466
0.05503616
-0.08031063
0.06038979
0.0066383006
-0.041357715
-0.08697089
0.007902078
0.068830475
-0.08539413
0.078086205
0.047647905
-0.11115424
0.06778673
0.09918811
0.058197968
-0.10019609
0.079634935
0.053944014
-0.07637648
-0.049842935
0.10183935
0.09888853
0.10026434
-0.07250503
0.11554339
0.07999316
-0.02669704
-0.05320481
-0.071847185
0.12002791
-0.021370234
-0.13771667
-0.10648043
0.020452566
0.016804079
-0.028638944
-0.08122323
-0.029049737
0.07842723
-0.0256928
-0.07566268
-0.086828776
-0.046931878
0.056791574
0.09834558
0.07337491
0.055628058
-0.043478183
0.05175973
0.05530966
0.04338723
0.053320594
0.103459984
-0.030643048
-0.013527868
0.017684903
0.034600146
0.09103402
-0.07443024
0.041176632
-0.0056054946
0.026023785
-0.024490226
-0.014175903
0.028185118
0.060991988
0.053983644
-0.009804245
-0.054331087
-0.01804196
0.115996
-0.045776106
0.04819861
0.07720016
-0.0024109522
0.02439031
0.06480072
-0.040696133
-0.074895576
0.10900564
-0.07096741
-0.017141309
-0.04386462
0.06950026
-0.07797177
-0.053896144
-0.102349795
0.083455846
0.11548975
0.049890015
-0.07154259
-0.050665084
0.065790996
0.091884755
-0.044739842
-0.077879615
-0.04167566
-0.095402025
0.06230498
-0.027743135
0.06653857
-0.07212659
0.05243958
-0.09145792
-0.055187486
0.0123424
-0.110592835
0.11457777
0.05850952
-0.023729641
-0.09324583
0.026902176
0.008020533
0.10743575
0.06967448
0.0973721
-0.023905413
-0.041891973
-0.039521668
-0.08452336
0.07585297
-0.016868966
-0.0671778
-0.06780232
-0.011456283
0.12152724
0.016167741
-0.116724245
0.09582283
0.0020830957
-0.06541711
-0.028831804
0.11373644
0.01585609
0.053842306
0.10710144
-0.08722995
0.02444786
0.08673409
0.122538604
-0.06914822
-0.0012747342
0.047967598
-0.0805451
0.025185619
0.004226638
-0.038983222
0.039010778
-0.09380047
-0.08809035
0.09094321
-0.03747293
-0.09028153
0.0614466
0.08032963
0.11251823
0.002892424
-0.012638514
0.09340656
-0.021641247
0.05074621
0.07302298
-0.095068134
-0.06709681
0.051925883
0.068045475
0.046911217
0.04506954
-0.1073565
0.0038622662
-0.09165494
-0.060361143
0.041033722
-0.04971142
-0.05583806
0.10343701
-0.042410765
0.083830394
-0.063953884
0.08191042
0.02571798
0.09237878
-0.061185557
0.094731525
0.0960694
-0.05549541
0.071074575
0.05345605
0.010622176
0.11485153
-0.1388589
-0.05085305
0.023172764
0.14634931
0.01166404
0.011150344
0.117427915
-0.050073203
0.11878092
-0.018698437
0.04166884
0.100728184
-0.061187983
-0.06476166
0.07086351
-0.0042172032
0.016947443
0.0701041
0.020233115
0.06729656
0.13558874
-0.011374711
-0.07733713
0.07748136
0.10659362
-0.10587342
-0.03509909
0.04670697
-0.079111576
0.06043341
0.08734755
-0.03452896
-0.10687453
0.102464505
0.11676779
-0.021414358
0.11001574
-0.08161189
0.0404802
0.12142127
0.009147507
-0.105166465
-0.09573132
0.009718558
0.081225224
0.09117371
-0.10256433
0.06370067
-0.097883865
-0.096904226
-0.10565063
0.023013454
-0.09431033
0.029757759
-0.060362395
0.07818868
-0.016555587
0.07736674
-0.06219459
0.050003253
0.053375896
-0.01026412
0.027882788
-0.12146542
0.070495784
-0.05113185
-0.08997161
0.08557456
0.08835186
-0.011369656
-0.03500451
-0.09299259
0.0052977367
0.053027675
-0.111170284
-0.004644853
-0.06125802
0.024292817
0.074633636
-0.035465848
-0.07725715
0.009795711
-0.051313587
-0.0709554
-0.1088608
-0.065556206
-0.08538118
0.079321444
0.03203839
-0.04806744
-0.018337097
0.09293229
0.037130613
-0.028910203
-0.082211636
-0.026631722
0.11636297
0.09539043
0.021813825
-0.009111112
0.059575856
-0.032737456
0.113324635
0.12853408
-0.056329474
-0.09638898
0.112892106
0.03967009
0.10302205
-0.048099726
-0.027591463
-0.08546303
-0.030062493
0.04302498
-0.10827092
-0.06057207
-0.04040621
-0.11442138
-0.10228007
0.0373614
0.059881285
0.1019225
-0.058991633
-0.037121575
-0.01425524
0.08017383
0.14295846
-0.03961245
-0.02685756
-0.0067673284
-0.07144488
0.12259465
-0.005193838
-0.11558183
-0.08291737
0.10971602
0.061082352
0.039677665
0.09424525
0.07665331
-0.050375257
0.106669374
-0.107692495
0.11329495
0.013635704
0.07366076
-0.001069461
0.049903806
-0.06462535
-0.13470969
-0.04208307
-0.005998569
-0.07300377
-0.052998148
-0.025665108
0.0581228
0.057759356
0.0077539957
-0.11562366
-0.11857102
0.09504648
0.048726276
-0.08912066
-0.10474981
0.053258136
0.12217479
0.08791728
0.09825816
-0.029379904
0.05524679
0.10599121
-0.051770505
-0.11167878
0.13444544
0.0023384555
-0.020042103
0.098161735
0.10826927
-0.088336155
0.09206441
-0.054334518
-0.0632128
-0.11616381
0.06011005
0.006408244
-0.036626454
0.0584836
0.097903885
-0.052294828
0.063860744
-0.05680595
-0.01002402
0.052569974
0.038055513
-0.033850037
0.051911417
0.001781126
-0.0138094025
-0.011695231
0.07992292
0.12944578
0.1267203
-0.06267887
0.04117366
0.02357841
0.10291834
0.005855457
0.087836415
0.087477036
0.012806876
0.026049318
0.04692132
-0.07357396
-0.087132744
-0.04597554
0.11299683
-0.05069085
0.102351144
0.07574748
-0.042708475
0.04615554
0.07168089
0.11998448
0.036715303
0.067467205
-0.0054040086
-0.09200196
0.08222199
0.097871065
0.048722055
0.109679505
-0.11828953
0.029446231
0.060330786
-0.062345207
-0.030505983
-0.068705104
-0.14162235
-0.08862838
-0.013649829
-0.020019144
0.113455504
-0.04593086
-0.11133221
-0.038176224
-0.05353377
0.035632595
0.01292738
0.10347259
0.058240958
0.07734565
0.10656119
0.12600817
0.0659948
0.12547065
0.068285905
0.08881263
-0.0020547023
-0.07723578
-0.0047140354
0.04940667
0.08573346
-0.040858846
0.008638552
-0.017062364
0.03378919
0.02400441
0.082775824
0.066443205
-0.113926195
-0.057495616
-0.013198386
-0.014072821
-0.07231743
0.025515972
0.054484993
0.118109256
-0.05362819
-0.068896696
-0.064629816
0.12925337
0.11131671
-0.035800423
-0.113393955
-0.03518789
0.10843071
-0.024656668
0.0017188767
0.011636263
-0.07261772
0.07483849
0.120415136
-0.056251775
-0.051315624
0.10509185
0.049893007
0.018185925
-0.009839226
-0.0001353401
0.019825187
0.06085846
0.029260753
-0.037667304
-0.0030609805
-0.077878594
0.021661518
0.022413658
-0.056038585
0.049572118
-0.08840534
-0.04372387
0.046843532
-0.0016764781
-0.07127974
-0.036908817
-0.03854235
-0.09255434
-0.07458014
-0.00019811628
-0.0031200396
0.07410485
-0.10008976
0.103602685
-0.06223634
0.10275582
-0.02248296
-0.029389838
-0.09626058
-0.10069033
0.03355327
-0.052074317
-0.06022296
0.03195786
0.07865849
0.03004284
0.041804746
-0.100647666
0.051475838
-0.05922367
0.054161433
-0.010994083
-0.081247926
0.120678976
-0.008145161
-0.0063963174
-0.08094522
0.05710044
0.014032195
0.055665303
0.1257251
-0.065988414
0.013649334
-0.048640613
-0.11446092
0.030433262
0.019103322
-0.09094685
0.04003519
0.023846393
0.03504548
0.024659952
-0.016189981
-0.099734694
-0.07388011
-0.00037622178
0.05480375
-0.07675363
0.009525357
0.12518385
-0.083947845
0.0841663
0.050752014
0.13603014
-0.014244623
-0.01380904
0.09899198
0.10131262
0.03964225
0.06420752
0.04974868
0.11964349
0.0503424
-0.021286026
0.050673068
-0.09413672
-0.079377934
0.031713713
-0.09809603
-0.10008992
-0.029357579
0.004744579
0.050647106
-0.09835953
-0.11890768
-0.041883215
-0.10031582
0.06352397
-0.11965009
0.06676161
0.045510624
-0.050018437
0.014720492
-0.015345348
-0.022727657
-0.09011542
0.09034062
-0.0898674
0.07701167
-0.065461434
0.04684354
0.008317636
0.032464992
0.021056144
-0.089410596
0.090488166
0.042780954
0.062450144
-0.11246998
-0.045773726
0.03090964
-0.09186382
0.06718751
-0.07419047
-0.10427409
-0.00090491417
-0.006095529
0.107469276
-0.0030803897
0.042994164
-0.057099782
0.033639137
0.11436643
0.0757325
-0.074448325
0.083667554
0.059313327
-0.10292258
0.09487037
-0.08480231
0.02377379
-0.07997667
-0.043681305
0.08160182
-0.109864846
-0.030326905
0.037964474
-0.104646035
0.045592446
-0.033531748
0.07080941
0.08296942
-0.002020516
0.105178975
0.014541625
0.03753941
0.035830982
0.06437413
-0.10010114
0.00689278
-0.046031166
-0.011731218
-0.11329998
0.046964537
-0.013181133
0.040265247
-0.03397079
0.10497381
-0.046853147
-0.006189272
0.10229387
-0.07783289
-0.11219073
-0.0032869803
-0.011760529
-0.06029877
-0.07947781
-0.05388848
0.02899717
-0.03162208
0.11342774
-0.088677794
-0.113781594
0.06942844
-0.05156377
0.10361811
0.06378088
-0.05717167
-0.10074699
0.10919264
0.0066228416
-0.07917545
-0.03003648
-0.118252814
-0.0036227535
0.07419141
0.072285876
-0.110066935
0.027437834
-0.06392933
-0.0503853
0.083096884
-0.05647076
0.01901659
-0.06974668
0.023492265
0.06747681
0.112644866
-0.06831209
0.07998125
-0.059336625
-0.004553303
-0.07683007
0.0036882677
-0.011172718
0.10445962
0.089627236
-0.08164801
0.09120913
-0.08121339
-0.048441388
0.09087954
0.029165523
-0.110706136
-0.072789684
0.013165009
0.058475606
0.07537256
0.044624936
-0.08570391
-0.11257132
0.08255355
-0.1118786
-0.085884385
0.0014899672
0.11337522
0.034062225
-0.03602446
0.011698916
0.032991305
0.0854483
-0.05416996
0.10934557
0.011865267
0.06235462
0.12417109
-0.0914074
-0.037242644
-0.040289856
-0.05941126
-0.007215004
-0.100703545
-0.03301595
-0.040767156
-0.02970264
-0.034160227
-0.062175695
-0.03777402
0.099218115
-0.00752994
0.011902969
0.083521135
0.0662251
0.010099001
-0.030292062
0.056994997
-0.0116566075
0.07909475
0.02114277
0.059332326
0.11516706
-0.03810676
-0.09910742
-0.025804412
-0.00075265946
-0.08223815
-0.11271114
-0.09274912
0.023038538
0.019921659
-0.0010229937
0.1269862
-0.008182546
0.09180096
-0.030822199
0.051335778
-0.023795817
-0.010527637
-0.09162834
-0.12203447
0.039927002
0.09052487
-0.076469526
-0.049264662
0.09759489
-0.027267478
0.10177195
-0.031629797
-0.09239546
0.04426578
-0.03134316
0.112653136
0.0030030971
-0.074135564
0.07765793
0.05651484
0.08141936
-0.107270226
0.10106208
0.05315429
-0.022743538
-0.0058852006
-0.067904264
0.08984886
-0.020484686
0.08621647
0.08180323
0.0077690636
-0.09157446
0.080585204
-0.07065644
-0.04030124
0.10514015
-0.07135049
0.11642006
0.052529965
0.0021062284
-0.08514343
0.054568924
-0.0104345875
0.048309974
0.07847413
-0.10721464
0.049945727
-0.08169441
0.08095231
0.037935667
0.10287344
0.007663589
0.030859444
0.05333539
0.044281278
-0.0841496
0.051851477
-0.039053757
-0.01949212
0.08353208
0.06812196
0.07890091
0.08939372
0.043570478
0.035220094
-0.014304306
0.02401138
-0.033444498
0.07083124
0.033376623
0.081142776
0.09815827
0.09441258
0.03343448
-0.0047548045
0.058572013
0.02587689
-0.112050176
0.014934476
-0.016666599
-0.002031447
-0.0816769
-0.014688957
-0.041420404
0.033168726
0.04209904
0.11701185
-0.01910839
-0.09487475
-0.10854803
0.013811332
0.110368274
0.12129762
-0.04505552
0.041621648
-0.064661175
0.11909665
0.06338737
0.06454398
-0.07396019
-0.05319862
0.12472117
-0.0065685157
0.03357941
0.114460655
0.050016467
0.012564057
0.116030954
-0.06969853
0.109950826
-0.07637935
-0.010927979
-0.087221645
0.11300074
0.0010026915
0.029485622
0.059458815
-0.02742382
-0.032822326
-0.03301526
-0.04741963
0.046608727
-0.04857663
0.06589507
0.063898765
-0.047877107
0.054240953
0.025995586
0.01972774
0.12597716
0.0049272664
0.12632617
0.011834854
-0.07709136
-0.011649381
0.090464994
-0.076209635
-0.089601204
0.04705031
-0.0702253
-0.06211237
0.07726962
-0.0024144985
-0.033363998
0.10913789
-0.02352512
-0.09496766
-0.09825586
-0.029993797
0.11396588
-0.12303549
-0.028566172
-0.0934404
0.0135613205
0.08808895
-0.047597352
0.024312515
0.044001862
-0.0022373472
0.01503773
-0.08965111
-0.08435856
-0.0054399637
0.05195379
0.057594027
-0.068066515
0.117350705
-0.013310447
-0.077567175
0.008914333
0.06310971
0.091837324
-0.07691612
0.03346559
-0.011942373
0.009481322
-0.08014908
0.12528293
0.10199771
-0.03398313
-0.074872844
0.06940326
0.10304283
0.0017255504
0.011927594
0.01043209
-0.10687838
-0.10325775
0.075491674
-0.030457154
-0.07205278
-0.015479718
0.073455974
0.11471836
0.03616626
-0.09322796
0.115782544
0.019097436
0.022995593
-0.0059681027
-0.09613395
-0.0111287935
-0.011189453
0.08460797
0.10221054
0.03873703
-0.008040823
0.026092522
-0.008221437
-0.0866945
0.12312238
0.09559525
0.03365539
-0.07669472
0.0856616
0.09879704
-0.0621818
0.050887898
-0.036029752
0.072641104
-0.018939871
-0.03024474
0.07435618
-0.116929
0.07579185
0.025739681
-0.10449338
0.08022009
-0.100328
0.053627625
-0.10461734
0.090582184
0.03599313
-0.035638854
0.12027703
-0.10561657
-0.023645189
0.12473056
0.055968497
0.09082946
0.009210314
-0.03089264
-0.07096943
0.014443453
-0.07821443
0.015866015
0.0643764
0.031977743
-0.09554661
-0.07311508
-0.027123015
0.019476395
0.03871497
-0.054271393
0.04445067
0.09520374
-0.062119473
-0.01911358
0.10706518
0.10594547
-0.01077807
0.071578175
-0.01673672
-0.058345325
0.09032744
-0.10282454
-0.090275645
-0.015564879
-0.0015438194
-0.061635967
-0.052076045
0.0773658
0.065248825
0.0024618115
0.039389066
-0.065455735
0.06602211
-0.049873512
-0.111917354
-0.06842689
0.07649805
0.09153779
-0.107100636
0.062375873
-0.11558157
-0.110066526
-0.10182265
0.017433552
-0.022504393
-0.047301445
0.08290891
-0.11659693
0.0896426
0.0061334926
0.086788744
-0.06600412
-0.043921635
0.06675673
0.07218136
-0.05186052
-0.07352666
-0.09749238
-0.093487576
-0.06857947
0.015925134
0.07283737
-0.06917497
0.053081498
-0.10378764
0.08205187
-0.0005026197
-0.00012041133
0.005268953
0.050575003
0.052895345
-0.1080192
0.042935662
-0.108686045
0.02784241
0.032529417
-0.09790142
0.09751321
-0.03234283
0.015622668
-0.015611754
0.119438514
0.09328629
0.12666331
0.109977186
-0.018102609
-0.0725591
-0.05620843
-0.108928345
-0.11403325
0.121353745
-0.08406812
-0.10734939
0.0094552385
-0.084860586
0.041865643
0.021911912
-0.016718525
-0.083924316
-0.008798877
-0.020732407
-0.06259136
0.041502222
0.11120195
-0.11910622
0.048127946
-0.0008372172
0.098392874
-0.081297785
-0.12653814
0.018053243
-0.08442782
-0.006724247
0.018902624
-0.04435207
-0.061351825
-0.048009884
0.024729887
-0.05028804
-0.006287171
0.030835107
-0.027053352
-0.065552056
-0.025849883
0.07452168
0.008715705
-0.09065552
-0.06674
0.009623512
-0.08042749
-0.03385408
-0.09943152
0.047463827
0.10125339
0.05598172
-0.05706468
0.037340473
0.034718256
0.10017775
0.090724595
-0.054819576
-0.04783044
-0.09474349
-0.08928445
0.11114053
0.03136278
-0.060396723
0.10761606
0.00046188512
-0.049167354
0.05172982
0.058692105
-0.017309723
0.054324545
0.07267914
-0.08782864
0.008621402
0.08217655
0.07652462
-0.041680034
0.07464932
0.049146388
0.002008863
-0.0024663578
0.052211344
0.08189328
0.08954548
-0.02360285
-0.09212098
0.0851173
0.009503712
-0.0032055138
-0.059827957
0.06654425
0.01066209
-0.117870204
-0.03832077
-0.054787174
0.04435087
-0.032897122
0.03446257
-0.0671113
-0.10767499
0.06207325
-0.04699059
-0.08615914
-0.09164048
-0.09386405
0.08146832
0.03597015
0.10817866
-0.074519634
0.055235766
-0.06611122
0.041215554
-0.054274302
0.026863163
-0.024507094
-0.04026735
-0.03393748
-0.012811661
-0.039556786
0.08528495
0.012823401
0.11626162
0.0120968465
-0.058538865
-0.039781906
-0.04133995
0.0021124945
-0.10488705
0.022294613
-0.052574966
-0.05905799
-0.049115505
0.017475322
-0.043144543
0.0036370996
0.11034726
0.093046136
0.009195028
-0.0104744425
0.08309102
0.021585116
0.058643308
-0.049864896
-0.0475568
0.091933995
0.02789775
0.01207857
0.058972396
0.004080663
-0.05266113
-0.042559613
0.09636338
-0.017353706
-0.03090747
-0.0071128337
-0.07121695
0.03285255
0.011585499
-0.050420325
-0.105184
0.10537619
0.016521707
-0.047148965
0.030730832
-0.10747237
0.01536168
0.080578804
-0.03977176
-0.045640197
-0.007916419
-0.020007705
0.11977887
-0.046616577
-0.074329205
0.09731339
0.023656555
-0.0070075737
-0.054753233
0.07618418
0.06526004
0.10300856
0.09568323
-0.092004515
0.087897114
0.0050178706
-0.07149151
0.052392438
0.07717393
0.034541633
0.003144541
-0.032419275
-0.07484035
0.046706732
-0.046589814
0.09960188
-0.07615928
0.07356522
-0.08146569
0.11079956
-0.09130984
0.10157944
0.007897382
-0.10704037
0.1214847
-0.0011029146
0.05620585
0.10424522
-0.07593112
-0.05377347
-0.047437884
-0.103151895
-0.08971715
-0.02935882
-0.08590474
0.113833494
0.06177824
0.065288626
0.08281982
-0.0061271465
0.11467927
0.09492742
-0.010261432
0.06068055
0.020191055
0.069074154
0.118501335
0.0594777
0.11272948
0.07172828
0.088975325
-0.11934178
-0.10190851
0.0789474
-0.05287633
0.06635464
0.099779665
-0.065555155
-0.08139733
0.016202912
0.055146422
0.036420126
0.0061365454
0.05114927
-0.10796233
0.092982166
-0.051836178
0.032447495
-0.01054579
0.08186395
0.08371952
-0.034521006
0.13082378
0.01167583
-0.002159313
0.11822707
0.006112935
-0.1096853
0.010870535
0.0407325
-0.05904754
-0.031308137
0.08690204
-0.05774487
0.12024479
0.067126356
0.0068407734
-0.06552245
0.006884443
-0.117098786
0.010934779
0.0014818996
-0.08733451
0.10345249
-0.051413488
-0.029205346
0.04468747
0.05187339
0.093302734
-0.02618818
0.030915555
-0.031377085
0.056957796
-0.032179546
0.12399642
0.07907829
-0.06627334
0.021724163
-0.056301624
-0.0049630282
-0.07542985
-0.011848542
0.091916904
0.053571537
0.055474557
-0.07010346
-0.053626485
-0.035758432
0.039538752
-0.0033851897
-0.09718934
-0.0023996339
-0.11518351
0.04209724
0.11299707
0.10245224
0.0651081
0.017814994
0.031655386
0.028309375
-0.017197816
0.05789119
-0.039850682
-0.04314204
-0.034391254
-0.09861994
0.07749833
-0.09036511
0.010262101
-0.06496439
0.07942759
-0.07419697
-0.006958928
0.08057428
0.083907835
-0.027801976
-0.0704854
-0.008700705
0.045565784
-0.0029275538
-0.086982004
0.037627704
-0.04624789
0.09793759
-0.04802583
-0.030252747
0.058985386
0.058543626
0.034196407
-0.052420765
0.108118586
-0.0041608233
0.10929868
0.09975037
0.0071033263
0.0780371
0.0617993
0.0274164
-0.04795308
0.00020105428
0.027999688
0.03286911
0.018921312
-0.054865666
-0.06525267
0.0137074245
-0.035473723
-0.058049757
-0.037856948
-0.029860506
-0.024412319
-0.090362094
0.03637521
-0.118105516
0.08509678
0.07576686
0.03993979
0.124713376
-0.09854069
-0.042353857
0.105905704
-0.038190722
0.03703475
0.043622356
-0.04767113
0.09084782
0.02720298
-0.027713176
-0.07198626
0.023459846
0.07785138
-0.10414718
0.028840506
-0.084639646
-0.02310594
-0.0711587
0.078408234
-0.054396864
0.12592362
0.08712314
-0.015145303
0.09041649
-0.022633146
-0.016581478
0.10705897
-0.07143647
0.12028171
0.08913766
0.12111162
0.0988273
0.025684737
0.11582208
0.102825284
0.054267272
-0.14315286
-0.053227626
-0.10198821
-0.06708376
0.056407895
-0.14819129
-0.0529369
-0.047592264
-0.038275383
0.13181984
0.017216096
0.032330457
0.12080326
0.04157306
0.024636023
0.024094388
0.041487657
-0.08708852
-0.07278916
0.06276036
0.10538903
0.08091854
-0.1297135
0.11082639
-0.07073783
-0.07341185
0.07417092
0.027707724
0.0051354636
-0.040459145
-0.056323458
-0.09800222
-0.08326002
-0.07734002
0.036434438
-0.068638265
0.006298557
-0.032506257
0.055660076
-0.087692216
-0.021548368
-0.005851699
-0.09328667
0.064021304
0.036312513
-0.016683636
-0.10688987
-0.11353824
0.054770567
-0.12683241
-0.08837657
-0.10421483
-0.0150134135
-0.09374499
0.107532755
-0.08791905
-0.010932472
-0.05594517
-0.034331825
-0.058231737
-0.078767
0.07282516
-0.026119346
0.09554428
-0.09745343
0.10063583
0.014731054
-0.03277599
-0.07937607
0.018237721
0.033139896
0.011991531
-0.08039357
-0.030047582
0.05279682
0.030555742
-0.0399284
0.091763124
0.07951756
-0.04353053
0.07162742
-0.06043805
-0.07315245
-0.03616713
-0.044261828
-0.08932393
-0.015041063
0.06319332
0.11337126
0.00011783806
-0.005467604
0.03713788
0.10810967
-0.053712707
-0.11762848
-0.020802904
0.03539541
0.016409742
0.046079636
0.06525742
0.06697329
0.052187797
-0.099876344
-0.05466869
0.027406832
0.12556772
-0.12224011
-0.074154995
0.010981662
-0.02169597
-0.009635299
0.03773899
-0.035518914
0.0011936771
-0.004850135
-0.107742056
0.07762078
0.105873555
-0.025274064
-0.07084912
-0.08365805
0.049519893
0.08183173
0.018803548
-0.11373229
0.06920587
-0.11263149
0.071700096
0.12734097
0.037113316
-0.005415998
-0.078035735
0.033494096
-0.10620901
0.0424936
0.09230904
-0.0016649571
0.06355861
-0.014478973
-0.07308338
-0.059730206
0.0014560135
-0.021637853
-0.03493798
0.07251152
-0.11618483
0.08330246
0.007565328
-0.044386294
-0.04519587
0.08299448
-0.042323846
0.0150245745
-0.003556012
0.019440219
0.014419478
-0.092865765
0.04056612
-0.099986866
0.034385215
0.010173329
0.12570012
-0.081836574
0.09492476
0.1108372
-0.09135136
0.051425025
0.11199112
0.028217303
0.035646856
-0.04200805
-0.020456174
0.047830712
-0.043908544
-0.029225297
-0.106678806
-0.082497254
-0.027785465
0.09089703
0.02070918
-0.078905895
-0.06076026
0.03317539
-0.019657081
-0.052400637
-0.0012699843
0.08361972
-0.103327654
0.11364419
0.078986526
0.030762218
0.07195098
0.10529441
0.051013723
-0.028202675
-0.050811242
-0.10522984
-0.083657406
0.02243003
0.04146109
-0.032557786
-0.02528441
-0.01643863
0.0927083
-0.070715435
-0.007135597
-0.046333328
-0.11144911
-0.062428564
0.09483805
0.089751154
-0.082013294
0.08200933
0.12675828
0.114652105
-0.044887632
0.06076317
-0.06725518
0.084634036
-0.0047215284
0.037878986
-0.039469227
0.039078232
-0.08055252
-0.032103356
0.06729525
0.08909348
-0.03246446
0.06879283
0.022290908
0.05946948
-0.06046873
0.044490024
0.07993343
-0.101944044
-0.05253711
-0.0599778
-0.04137348
-0.05791304
0.020360408
0.07515879
0.03285526
-0.063138954
0.022563355
0.07678874
-0.031512883
0.05707837
0.025242072
-0.013331052
0.007140783
-0.113814406
0.089956716
-0.025360543
-0.11231773
-0.01403916
-0.11026371
-0.10210768
-0.006975266
-0.110186405
0.06930947
0.0068618394
0.07610189
-0.101445846
-0.0959209
0.026864558
-0.031002512
-0.010553076
0.0042062216
-0.044546448
0.056803655
-0.081245
-0.014136229
0.12785824
-0.016910177
0.041303366
-0.043816816
0.11672769
-0.02836676
0.007128051
0.08296446
0.028592067
0.0231062
-0.08754756
-0.08997625
-0.09586231
-0.077621765
0.061204433
-0.06784566
0.030075733
-0.019769117
0.115951516
-0.11151258
-0.10732971
-0.05926638
0.01225327
0.08578982
-0.009109206
-0.08078252
-0.07405788
0.011167299
0.058422875
0.09464881
-0.041432418
-0.08531031
0.11437918
-0.08482202
0.016048376
0.021421097
-0.07236568
0.0027645014
0.08127833
-0.073339246
-0.00033481847
0.06343627
-0.0380388
-0.119157426
0.1008971
-0.023367954
-0.0453335
0.024002008
-0.054249212
-0.04492643
0.051255498
-0.037254307
-0.11122358
0.0569965
-0.08221411
0.09557606
0.087158464
0.107765704
-0.047630835
0.04765451
-0.1074841
0.12264415
-0.04560886
-0.104027055
-0.082947806
-0.05841012
-0.0770667
0.016786639
0.12198451
0.056433093
-0.014956143
-0.035942543
0.0082331635
0.08729062
0.0072540683
0.030021843
0.0008215671
0.041195363
-0.023504812
0.045226075
0.038464773
0.113406226
-0.029141927
-0.044580065
-0.020956123
-0.15049806
-0.095605485
0.0685803
0.10471976
0.09391947
0.06670935
0.09136948
0.046292942
0.116928466
-0.009008514
-0.03470377
-0.09731715
-0.1200726
0.11397098
0.0021504064
0.040002823
0.0866438
-0.08307924
0.09968938
0.08977902
-0.094535716
0.028840723
0.10095596
0.07188303
-0.0007591485
0.107497126
0.06943236
0.0924447
-0.0505239
-0.0790428
-0.11127228
0.043469
-0.01172966
0.073154174
0.03530557
-0.07823894
0.0031292299
-0.086724445
0.09339143
-0.033578567
-0.046373334
-0.11034345
-0.081185274
0.081086606
-0.021231243
0.021824159
-0.031408194
0.08469924
0.024358373
-0.10879012
0.09623088
0.08245581
0.075746045
0.017681574
-0.1252422
-0.06499425
-0.12123837
0.022565557
0.09262106
0.0842844
0.08896913
0.09393341
0.07485958
0.03877038
-0.07888337
-0.008329966
0.07047466
0.083950736
-0.011207145
0.12393508
0.062187303
0.014754083
-0.065788515
-0.018816859
-0.053653806
-0.026007457
-0.051267542
0.031762652
0.10055782
-0.042363536
-0.04273107
-0.07210664
9.219299e-05
-0.039883833
0.07167537
0.11437663
0.06402269
-0.015536957
-0.067998536
-0.108906925
0.08920161
0.11079667
0.102237426
0.095205344
0.10787326
0.07157181
-0.047263365
-0.08926345
-0.07580064
-0.09414142
-0.111085355
0.111705765
-0.004849038
0.1094172
-0.087892726
0.08670088
-0.049795084
-0.019528387
0.018583281
0.123151965
-0.06939026
-0.102023974
-0.11520887
-0.058040056
-0.07553971
0.072824664
0.077069044
0.14137524
-0.039327033
-0.020666493
-0.023790624
0.084891915
0.12415438
0.039794993
0.11438501
0.0014066317
0.025946097
-0.053450014
0.025440184
0.094805844
0.03899346
0.044709314
0.025912438
-0.015060109
-0.057938144
-0.016377885
-0.047313128
0.09129491
-0.034404587
0.08389769
0.020291723
0.0411802
0.123194054
-0.018643647
0.08555891
0.12349048
0.09376013
-0.035332493
-0.08598773
-0.03404943
-0.09099249
0.023747347
-0.018227177
0.065634154
-0.00017924322
-0.14484604
-0.0103882635
0.11000957
-0.009631041
0.052316386
-0.11335039
0.045417905
0.054295264
0.106394574
0.08245724
0.0788151
-0.10056022
-0.08380543
-0.036861148
0.08762992
-0.09680855
-0.043183863
-0.043670744
-0.08377663
-0.008066103
0.053722594
0.029939078
-0.07888235
-0.0015487188
0.042328324
0.11160219
0.014809863
-0.003860349
0.074209444
0.055231493
0.017943598
0.004304586
-0.08489249
0.009426942
-0.031154703
0.024858488
0.028100835
0.001955363
-0.07699895
-0.02544194
-0.08833232
-0.10284392
-0.07518912
-0.088416256
0.05214709
-0.04648361
0.022214195
0.07402692
-0.01403397
-0.1052263
0.04404526
0.050329495
0.019566381
-0.11201265
0.07495117
0.035949554
-0.07633428
-0.038228795
0.041233286
0.060482603
0.08666136
-0.074405156
0.10076332
-0.018690897
-0.06293516
0.107508786
-0.04631972
-0.09270467
0.0041554915
0.075016946
-0.06660455
-0.019676814
-0.008530806
0.014196342
0.053845752
0.06788154
-0.0400028
-0.13176285
0.033237204
-0.059623517
0.028378464
-0.12228488
0.027245497
0.056807857
0.058332592
-0.03089419
0.12240217
-0.106910355
-0.06284219
-0.08085787
0.032398403
0.10937067
0.06127617
0.10835284
-0.04816541
-0.05779697
-0.09330283
0.021097077
-0.05688842
0.03836899
0.05327701
-0.035128377
0.0774541
-0.058608327
0.06669188
-0.040445853
-0.10664473
-0.057244577
-0.014338087
-0.06759681
-0.08445289
-0.015917648
-0.06743908
-0.083959594
0.027669469
-0.008312096
-0.098081104
-0.05459035
-0.062308423
-0.09227891
0.121024765
-0.0074744094
-0.035074446
0.031501044
0.09858557
-0.104059465
0.06675549
-0.036459316
0.11330118
0.01898633
-0.11035016
-0.056035943
-0.009816414
-0.0451484
-0.050694454
-0.117302634
0.06900486
0.09580431
-0.02020126
-0.06471466
-0.109616786
-0.08869579
-0.0077912183
-0.07561467
0.02658171
-0.054993596
0.01614782
-0.08224487
-0.041789714
-0.09246785
-0.02075329
-0.08861605
-0.1042662
0.032944694
0.06534086
-0.05843556
0.010181668
0.09504904
-0.07092238
-0.102212764
0.06856479
-0.011907489
-0.0073039876
0.08750992
-0.032104667
0.08606913
-0.008342428
-0.07788483
-0.082782395
-0.07647762
0.083174415
0.022073068
0.029940113
0.06362482
0.042472906
-0.059910312
0.10239187
-0.06350462
0.05367987
0.11147445
0.06741223
0.018178986
-0.0008778083
-0.08559455
-0.069143794
-0.02987581
0.090779476
-0.01665006
-0.0777555
-0.067753516
0.10303092
0.05086523
0.098839045
0.07493594
-0.038600303
-0.05744034
0.033050627
0.08257478
0.0065683047
-0.04178098
-0.10737868
-0.07309452
0.013050354
0.04762289
-0.07210562
0.017277464
-0.11239844
0.03180199
0.02399361
0.03186348
-0.02326368
-0.0077251787
-0.059449796
-0.108987555
0.12340498
0.08731775
0.06555633
0.13324718
-0.0030326508
0.062298838
-0.13481197
-0.08251913
-0.004212896
0.13610607
-0.09571916
-0.037224207
-0.09499725
-0.1109565
0.070829496
-0.12977876
-0.10872871
-0.034045614
-0.031973828
0.08713079
-0.088005126
-0.09840734
-0.096566334
0.068830505
0.12241816
-0.0019480519
0.113005206
-0.10952892
-0.027467988
0.06779165
0.07500942
-0.02958321
-0.017108323
-0.030828798
0.08534275
0.016903367
0.114266425
-0.090029836
0.05170035
-0.024864893
-0.009112678
0.06359511
0.014535552
-0.09539316
0.08860468
-0.034836955
-0.11446499
0.02714297
0.06888164
0.10578562
0.049411662
0.0955064
-0.0054724016
0.010117334
0.013253907
-0.097985275
-0.011325711
-0.0033095267
-0.09636125
-0.10831543
-0.0066850674
0.07013904
-0.06381042
0.033293966
-0.11803065
0.086719446
0.081491664
-0.08358351
0.059528697
0.05291944
0.059279125
-0.08226054
-0.0030010282
0.023103712
-0.09330922
-0.089412056
-0.12046052
-0.075319536
-0.032423697
0.032739826
-0.09827987
-0.09532404
-0.039033454
-0.037484653
-0.037335813
-0.021608714
0.052428115
-0.10488043
-0.055422764
1.2028073e-05
0.049005102
0.038838785
0.05939523
-0.026647627
0.024379756
0.11045983
0.020548161
0.099829204
-0.036913782
0.10378517
-0.04749041
0.08902652
0.074282736
-0.07469879
0.09559661
-0.05404315
-0.09610989
-0.0909865
-0.002478039
-0.03791223
-0.013354385
0.02707885
-0.004646355
0.118847705
0.08567538
-0.04102927
0.10198689
0.058791544
-0.088085726
0.06456656
0.07127347
0.0024226748
0.081635885
0.11887584
0.074674815
-0.10111296
0.10889022
0.06994565
0.09559484
0.0129455365
-0.050521262
0.13243791
-0.08566566
0.10129285
-0.019812822
-0.07368675
0.06859429
0.10225276
-0.13990518
-0.06735341
0.040975686
0.05808228
0.115330786
-0.11100466
0.015831653
0.11375921
0.039753124
0.00245693
-0.083921984
0.103095286
-0.091527276
0.07078978
0.14355198
0.020618247
0.032862995
-0.0075573106
0.03395913
-0.004498113
0.042918976
0.06548006
-0.06477666
-0.026616184
0.06005613
-0.124104805
-0.01930309
0.014400007
0.10596801
0.073710464
0.09090848
0.10176308
0.03582534
-0.089901045
-0.11090082
-0.036453173
0.015968645
0.025916375
-0.04285975
-0.0056907446
0.06692463
0.07499158
-0.055163097
-0.081284344
0.087386176
-0.06471505
0.089427404
-0.022909211
0.10406831
0.067912705
0.004614285
0.10460894
-0.09377428
-0.093658075
0.048566457
-0.08218698
0.06073986
0.0419559
-0.08960476
0.062722996
0.01171284
-0.008697948
-0.0028548767
-0.05972348
0.031540893
-0.055762105
0.101556286
-0.0078559285
0.038801372
-0.028117815
-0.05910939
-0.09591471
0.009861145
-0.07896891
-0.01853163
-0.050319668
0.0067729107
-0.100554034
-0.031713553
0.104765065
-0.04836269
-0.053328507
-0.064388774
0.03626838
-0.002536232
-0.028977837
-0.050509028
0.016565874
-0.028586568
0.08732841
0.019059882
0.10845346
-0.055558242
-0.0468552
-0.08008909
0.081346005
0.05551395
0.116431154
-0.0021268385
0.111493416
0.056699328
0.12861988
0.026557736
-0.0895294
-0.05774538
-0.09310043
0.059563436
-0.06217484
0.057138983
0.051218424
-0.08319752
-0.07813613
-0.059072055
0.085919835
0.049575273
0.12037299
-0.020871885
-0.05767299
-0.10006825
0.11152355
0.098934114
-0.033970214
-0.10233318
0.018900499
0.09190859
0.06436931
0.06329796
-0.033873484
-0.110391036
0.00093490817
-0.110954195
-0.06399081
-0.091279514
0.12214448
0.11529458
0.0651943
-0.03999022
0.08084536
0.11044079
-0.0006251521
0.11742497
-0.050202906
-0.110449605
-0.059012275
0.05159994
-0.026304608
0.09774268
0.035533685
0.022626357
0.038567334
-0.061500497
0.063838944
0.057683643
-0.100775234
0.08706737
0.08451977
-0.008538527
-0.046031173
-0.10146193
-0.022954306
0.055056695
0.015774364
0.090654366
0.087636046
0.104984656
-0.13193224
-0.06564851
-0.01205467
-0.025271054
0.12321087
0.034109652
0.0844735
-0.1050158
0.08298728
0.030882077
-0.04224562
0.08108093
0.04180948
-0.004814343
0.05097614
0.07075206
-0.10330477
0.09104374
-0.09661821
0.0755495
-0.008560593
0.043452255
-0.09481603
-0.046820972
0.00025209534
0.057315476
0.019622326
0.038782872
-0.014425051
0.09972186
-0.022901615
-0.110876136
0.09680869
0.0102222795
0.02438696
-0.017836485
-0.086582266
0.07745382
-0.051566012
0.061537646
-0.04523972
0.00010891183
-0.07663588
-0.05000867
0.033818476
0.03836523
-0.08820856
0.062577605
-0.011236826
0.031576786
-0.090769365
0.1174016
0.024803374
-0.09652331
-0.07202421
-0.12620501
-0.08803993
-0.08082161
-0.08659321
0.066758715
0.030660992
-0.05608571
-0.008016821
0.011798344
0.04275243
0.10004865
0.032764144
-0.0006883072
-0.039385714
0.09925706
-0.08357896
0.10588784
-0.10587554
-0.081097275
0.03154586
-0.07883152
-0.10283437
0.12827463
-0.08890766
-0.08123413
0.047161866
0.058283985
-0.0811516
0.061910868
-0.110450506
0.11759326
-0.083141536
0.082601465
0.066602
0.040060543
-0.07765144
0.124324
-0.08518546
-0.015228686
-0.075127736
-0.005196435
-0.081955716
0.014314898
-0.031559423
0.09026421
-0.051731665
-0.06739802
0.024059549
-0.026822843
0.08609528
-0.01135394
-0.062637635
-0.09743431
0.06693605
0.049192324
-0.100414634
-0.017703105
0.01979704
-0.020069974
0.105958
-0.07568887
0.07799917
0.034424026
-0.036724053
0.042479757
-0.027127286
0.038349245
0.08558371
-0.055521198
0.045039926
-0.03276133
0.03565212
-0.018328393
0.07352585
0.034790296
-0.0048772604
-0.09805716
-0.11546507
0.065852344
-0.023107836
0.035511304
0.032272566
-0.0136144785
0.08192691
-0.08614856
0.11614735
-0.09455284
0.06318216
0.013449576
-0.04000031
-0.032216832
-0.01439937
-0.11026096
-0.107673764
-0.01480491
-0.09573784
0.035522256
0.1087047
0.00035937843
-0.042654973
0.06737482
-0.037102174
-0.0032576285
0.025007505
-0.06769187
0.016864585
0.058082618
-0.0699367
-0.067940846
0.034221936
0.0006754613
-0.057360012
-0.08660406
-0.030768933
-0.0915689
-0.08382397
-0.01049923
0.0939359
-0.033834573
0.12406578
-0.08944951
-0.045985885
0.007652873
-0.10799602
-0.09634788
0.0034898901
-0.011277981
-0.051479105
0.038899533
-0.11008121
0.07584822
0.07850569
0.04072985
-0.053297017
-0.043102905
-0.07370814
-0.058693852
-0.10635714
-0.08985247
-0.06322367
-0.013771449
0.040721394
-0.0041555315
0.07920713
0.10004221
-0.046888247
-0.05587055
0.11881168
-0.092540815
0.019420778
-0.04945582
0.08115928
0.11937825
0.0517247
-0.0886443
-0.09920957
0.10429206
-0.052991595
-0.010332937
0.033595134
-0.068239756
-0.046438273
-0.021838408
0.031437587
-0.1354493
0.016198404
-0.02150907
-0.0828135
0.13198327
0.0518721
0.09626504
-0.080599084
0.029742807
-0.06170382
-0.042194106
0.11903953
-0.112982884
0.0116052665
0.008004804
0.067061335
0.05012575
0.017040182
0.028016694
-0.022730703
-0.07368568
-0.056309063
0.04504255
0.097365975
-0.0072490983
-0.007898375
0.09058426
-0.119653866
0.009342877
0.021719826
-0.032303236
-0.0137426155
0.026770394
0.005712848
-0.08189529
0.012685964
-0.027578747
-0.023240937
0.09256495
-0.09037733
0.060435012
0.06268542
-0.12115006
0.02140735
-0.032713205
-0.032903295
-0.057387877
0.015354822
0.05142456
0.012054468
0.09974895
0.023946295
0.06465086
-0.09257813
-0.073003806
-0.057538886
-0.012910632
-0.032927368
-0.0005903766
0.037270594
-0.012609207
0.043916877
-0.088150136
0.07562016
-0.030965462
-0.01904814
-0.121676505
-0.06760323
-0.00044278728
-0.123112485
0.041914523
-0.031987198
0.07325257
0.10789755
-0.08640321
0.055366054
-0.06989665
0.029423157
-0.085929334
0.09793143
0.018328765
0.02413833
0.047045648
-0.038947277
0.039261505
0.006730623
0.04342415
-0.049550924
-0.02908794
0.003884675
0.05960953
0.007431901
-0.08123554
0.042544384
0.027924133
0.015817055
0.069550864
0.115069084
0.029468758
-0.098521
-0.014643733
-0.061715577
-0.030054254
-0.039399344
-0.041817494
-0.0131977545
-0.023390869
0.08665996
-0.09523095
-0.015760534
0.07017596
-0.018568378
-0.030161563
0.036006633
-0.053464722
0.07615296
0.07408176
0.114035636
0.09864759
-0.019617468
-0.0983586
-0.038649146
0.02649969
0.01676431
0.06414291
-0.05152728
0.08432739
0.05149352
0.06120346
-0.04068726
0.056602344
-0.009436479
0.07359931
-0.11314522
0.10391632
-0.057200287
-0.016058518
-0.037938923
0.11814617
0.12266287
-0.07235727
0.055918187
-0.09806195
0.010635685
-0.012842846
-0.0012024074
-0.058374375
-0.03291113
0.082098894
0.04555919
-0.05145197
0.063925885
0.06890366
0.09722606
0.10314972
0.035668284
-0.026430538
0.04372731
-0.055733852
-0.0005746068
0.1051647
-0.033592746
0.0421556
0.10928837
-0.060319588
-0.08497116
-0.104931936
0.033580564
0.11115872
0.07294268
-0.027632464
-0.102427356
0.055078305
0.07339022
0.068628415
0.053827107
-0.09836708
-0.04641093
0.0046019405
0.018366594
-0.09218304
0.0016795715
-0.049281064
-0.11585414
0.08214942
-0.09665525
-0.04481463
0.029276317
0.09804549
0.04382821
-0.04415726
-0.008437853
-0.052593146
0.11740043
0.02888747
-0.07854058
0.06681858
0.09610476
-0.10950158
-0.09297155
-0.018015536
0.006489364
-0.05113237
0.059698585
-0.08697703
0.029296406
0.11076181
0.06798581
-0.10111182
0.042577628
0.03431341
0.033884466
-0.018256705
0.102492414
0.09974368
