-0.0941902
-0.030422885
-0.020101424
0.016248772
0.02939815
0.045003146
0.008784692
0.014886874
-0.057896674
-0.04764378
0.08434375
0.045618623
0.00943076
-0.03979718
-0.017804982
0.046434917
-0.013120749
0.041867774
-0.015908796
-0.011739129
0.039557256
0.092973486
-0.030302037
0.06311112
0.02116259
0.016016457
-0.029520638
0.018679792
0.039024513
0.041706145
0.030604618
0.08057543
-0.049949158
0.055959713
0.07563338
-0.05435208
0.06887986
-0.031072093
-0.035157043
-0.0702535
0.07996293
-0.011616267
-0.029635139
-0.024668796
-0.03631706
-0.028881226
-0.068609014
0.04869218
0.06140836
0.07001181
-0.033577953
0.031226218
-0.08261875
-0.07429541
0.034528606
-0.035499565
0.02556536
-0.0436332
-0.0036891701
0.09827798
-0.05831044
0.036009714
-0.07
-0.013776388
-0.047164544
0.011148788
-0.06760722
-0.05149652
0.0070066573
0.0039477837
0.06297078
-0.05417945
0.0140524395
-0.06830876
0.087105
0.010176325
0.07768073
0.05728959
0.017494418
-0.004703186
0.012967857
-0.040167235
-0.03252619
0.00038900977
-0.062161345
-0.060363255
0.03555515
0.014774658
-0.035660118
-0.010557183
-0.031749252
0.025391862
-0.03761877
0.015202826
0.013116302
0.07759855
-0.039156605
-0.04143202
-0.032521814
-0.035400767
-0.050624996
0.073925376
0.080330834
0.07541181
0.07789013
-0.034522023
0.08703609
-0.029761182
-0.06987971
-0.071027815
0.059173524
0.046844438
-0.07813508
0.066686995
-0.07982635
-0.03540211
0.0530136
-0.0064494326
-0.07051329
-0.0019501214
0.057548046
-0.07879854
-0.047017734
0.03504333
0.037050094
0.08676618
-0.10035038
0.036563084
0.05772222
-0.070869826
0.046844088
-0.044803344
-0.018812135
-0.06441736
0.0065525305
-0.010680234
-0.011759761
0.0743872
-0.037660554
0.0754573
0.043180477
-0.09511481
0.047309384
-0.022858853
-0.07934787
-0.009512404
0.018539513
-0.06804
-0.04710596
0.004299929
-0.038309164
0.03958218
-0.051214583
0.025925528
0.004759644
0.059592035
-0.032040752
0.0239292
-0.08497955
0.019203426
0.039374396
-0.06953649
-0.039013177
0.00924747
-0.04269486
-0.0349366
-0.028181631
0.033102516
0.006647085
0.04531331
0.046592638
-0.017607538
-0.048697617
-0.031517744
-0.027434682
-0.022188704
0.021849917
-0.0386813
-0.07955693
-0.017938485
-0.06555804
0.00040715648
-0.05635539
-0.098392576
-0.06070946
0.042952657
0.04380063
-0.048749156
0.010932554
0.07311041
-0.07739905
0.055879552
0.027143288
0.048494764
0.0071895546
0.05056378
0.023296235
-0.073713586
-0.049101844
0.05138179
0.036679797
-0.06986072
0.02453926
-0.008943986
-0.05109069
-0.01449086
-0.025773088
0.0073241186
0.038443316
0.03824468
0.048990652
0.03299036
0.032122906
-0.03684175
-0.06769218
-0.07223855
0.09575939
0.00480013
0.0654907
-0.013541751
-0.034971174
-0.026634766
-0.062051125
-0.027812334
0.039748725
-0.01615525
0.006497355
0.009079665
0.05210706
-0.05793529
0.055463083
0.037817303
-0.04257268
0.05962742
-0.06326244
0.06557724
-0.07383553
-0.0088517405
0.02146591
-0.0376104
-0.031342663
0.016841639
0.021504208
-0.07528062
0.07865629
-0.05834471
-0.06715069
0.021078618
0.060186457
0.054625247
-0.045297526
0.064245485
0.058506537
-0.079744756
0.03365296
0.03462515
-0.074678004
-0.047755778
0.026321946
7.272838e-05
0.07387631
-0.017935546
-0.085160196
0.031651016
-0.06555563
-0.031641368
0.0040801154
-0.060779463
-0.016430736
-0.043414794
-0.047140036
0.060947597
0.07428663
-0.07396713
-0.07620922
-0.015629184
-0.035363622
-0.06433912
-0.010133293
-0.047029983
0.041471224
-0.030425908
0.0748547
-0.06358882
-0.07348062
-0.040436056
-0.04546908
0.054467034
-0.031416267
-0.051968127
-0.016292112
0.06695692
-0.07526342
0.045221575
0.016416717
0.036899887
0.061431706
0.08361112
-0.0152378455
-0.034766193
0.040916067
-0.005844538
-0.013905065
0.08953931
-0.05226821
-0.012002053
-0.07099508
-0.05105872
0.010840984
0.0048875054
-0.08148305
-0.024818325
-0.06016507
-0.01352911
-0.042303752
-0.050673347
0.04403521
0.067273855
0.03306497
-0.032656245
-0.03932032
0.07209716
-0.030554868
-0.080479324
0.065309
-0.08614442
-0.03369901
0.04501099
0.016098993
0.07140117
0.0066258875
-0.05703672
-0.010439238
0.038104977
0.07272781
0.0226674
0.02828149
0.0028226273
-0.04396812
-0.008129278
0.081000924
0.021120252
0.06466587
0.0659045
-0.04982087
-0.043113716
0.08037435
-0.051447418
-0.027918858
-0.08383358
-0.03599908
-0.047245007
0.009713929
-0.0579269
0.034475632
0.04157053
0.009164431
-0.044715423
0.031784836
0.04623941
0.08713243
-0.0315241
-0.06391871
0.05482532
-0.016837152
0.05129051
0.09859959
0.019675616
-0.009821016
0.07031503
0.04965423
0.039739132
-0.042130608
-0.019602166
0.047015738
-0.027541187
-0.067844085
0.080160476
-0.043488935
0.012801397
-0.07573684
0.026519267
0.076640554
0.033134013
-0.09817651
-0.06133485
-0.018934468
-0.040584236
-0.09995472
-0.03826133
-0.027504694
-0.010284835
0.015324581
-0.039362554
0.078161225
0.08914404
0.03818036
0.05943074
0.015608139
-0.033052105
0.035452817
0.075449675
0.077150375
0.06397449
0.050970584
0.0051556113
-0.05626392
0.04633842
-0.070299
0.052309398
-0.07082664
-0.0642373
0.05770847
-0.045074243
0.06310113
-0.010981221
-0.05706161
-0.023783088
0.06622415
-0.006174607
0.08071105
0.003519022
0.039297994
0.07059144
0.018943164
-0.028825967
-0.032927528
0.030769836
0.04557996
0.0072508827
0.07023979
0.020687832
0.008107186
-0.08271008
0.029825216
0.008049061
0.09192928
-0.07088148
0.055515345
0.057014685
-0.02330256
0.020564716
-0.024890501
-0.027035402
-0.08131308
0.062151004
0.06358553
-0.04481732
-0.10252593
0.033941567
0.05604975
-0.041009195
-0.029564632
-0.065486416
-0.076059505
0.045573056
0.104078345
0.0015611383
-0.07411316
0.005393234
0.03635677
-0.02566105
-0.024585767
-0.049471643
-0.031560086
-0.04810572
0.0011572427
0.009110063
0.07677326
0.093925446
-0.045101244
-0.0819634
-0.038825803
-0.08111077
0.022767333
-0.06232772
-0.003515476
0.02684488
-0.025035542
0.01546711
-0.010642844
0.07118658
0.08994538
-0.050830886
0.05661953
0.09368641
-0.045977976
0.0052062464
-0.049981594
-0.0177919
0.025309982
-0.04226101
0.07146948
0.012214356
0.090993285
-0.016092982
0.042458948
0.07069886
-0.04458662
-0.0016657324
-0.048471414
-0.058875468
-0.027962727
-0.047135454
-0.047365043
0.04427048
-0.035537966
-0.066113815
-0.07748043
0.006703131
0.01719904
-0.009114894
0.007705655
0.0018521209
-0.07459972
0.09108613
0.03568175
0.017568616
-0.012828154
-0.06354152
0.02409238
-0.056091547
-0.02217249
0.006424593
-0.016459368
-0.047614537
0.005714598
0.029395107
0.06547055
0.002669242
-0.031529017
-0.05532903
0.047759116
-0.023201669
-0.010632958
-0.025035065
0.0005695979
-0.028531868
0.040604614
0.018656647
0.062331706
0.06334893
-0.052741278
-0.058490235
0.021042282
0.05434326
-0.0098051345
0.029371763
-0.07470197
-0.054890785
-0.019739976
-0.035016928
-0.048721712
0.034800433
0.03542963
0.038435165
0.06117245
0.023791378
-0.055470962
-0.07747218
-0.0212524
-0.08462544
0.00068598584
0.07077586
0.0020148996
0.031922974
0.06802752
0.047527492
0.06963897
-0.021567618
0.012318786
0.031616062
0.061435405
0.07789631
0.069214106
0.08018516
0.030711748
-0.028598806
-0.062008575
-0.059805296
0.02402509
0.031870205
-0.02620603
-0.077225015
0.07767534
-0.041871026
-0.053254407
0.082762465
0.0093317665
-0.082578905
-0.08697166
0.046115678
0.046982132
-0.022272445
0.047773823
0.009420518
0.04719932
0.027596721
0.08250667
-0.0040689525
-0.06580219
0.015411221
-0.04115599
-0.03226214
-0.07090279
-0.03014943
0.04422854
0.055700004
0.011366897
0.0032091169
0.056699883
-0.059444904
0.035218373
-0.021804519
-0.014364232
-0.05172388
-0.08768055
0.07152193
-0.022064669
0.045600664
0.04227827
0.011585542
0.060296062
-0.04749933
0.069299705
0.022219943
-0.0008115358
0.07889877
0.054723848
-0.059064563
-0.07762904
-0.08219235
-0.0361477
-0.040452097
0.036185093
-0.05577613
-0.048320066
-0.045647107
-0.050037492
0.036420155
-0.009512806
-0.03697058
0.038532227
-0.05554411
0.06177431
-0.0138720265
-0.077188246
0.019537384
-0.050024305
-0.033409737
-0.003213001
-0.08924144
0.027397763
-0.051254973
-0.09689117
0.0716451
-0.03245491
-0.05572099
-0.056016754
-0.07540934
0.011769013
-0.07429768
-0.058804285
0.08701884
-0.027424144
-0.05822183
0.073540665
0.014746242
0.009339213
0.029846715
0.06075615
-0.023188505
0.029416537
-0.059584666
0.0078412
0.00974937
0.08776059
0.09654784
0.031328604
-0.073479384
-0.0018544645
0.00049516145
-0.066027164
0.06895379
0.0088124145
0.02354487
-0.050434064
-0.05885017
-0.059252687
0.038221706
-0.028868094
0.058281463
0.043748375
-0.074158
0.026975606
-0.050690096
0.082228035
-0.0048136986
-0.02720823
0.05251791
0.011461749
0.065942466
0.052599445
0.05933882
-0.050143227
0.011662415
-0.0812728
0.03035141
-0.065727204
-0.08658082
0.0027555448
-0.02896648
0.11247747
0.021509105
0.034253478
-0.05253646
0.095255986
0.00121574
0.019602168
-0.043707192
0.04034747
0.01795719
-0.004579008
0.039084103
-0.014349787
0.07387497
0.0026481454
-0.04984677
0.08864394
-0.07687458
-0.0442425
-0.03861156
-0.07268744
-0.04770891
-0.02773129
-0.046835814
0.028520592
-0.037833687
-0.047296975
-0.03901052
0.01735513
0.020539632
0.07662681
-0.046652455
-0.060884837
-0.055758584
0.07854309
0.042075697
0.0014823301
-0.07183779
0.053619802
-0.004835004
-0.059874404
-0.060022287
-0.08436651
-0.07764612
0.02936618
-0.04318499
-0.07459545
-0.039893467
-0.006363682
0.01532263
-0.07625129
-0.04521231
-0.085531466
0.022461697
0.04842366
0.032668784
-0.07830443
-0.05872384
-0.026955202
-0.029780462
-0.04516256
-0.076588675
-0.027386134
0.06092525
0.08817893
-0.06262238
-0.06321104
-0.01114322
0.0055085043
0.08083891
-0.0018357689
0.0079231085
-0.024299743
0.099835634
0.07605813
-0.05697593
-0.012941185
0.08324269
0.07128603
0.012628598
-0.041862912
0.03151587
-0.050385855
0.08943484
-0.011341374
-0.014937697
-0.07299668
0.027104959
0.0016046718
0.03979225
-0.0504503
-0.055458732
-0.08313392
0.018538298
0.034101725
0.0066211857
0.07668374
0.040495776
0.024609186
0.042116232
0.0053759078
0.020463089
0.04917337
-0.042215835
0.0739158
-0.05412025
-0.06672449
-0.041961517
-0.030597297
-0.08995211
-0.0043738815
-0.011440395
-0.04939337
-0.001524288
0.09403651
0.023746392
0.040307622
0.014317409
0.0060162144
-0.03540086
0.056922067
0.05259351
-0.0054719974
0.010720738
0.002843653
0.107523866
-0.06976309
0.016579127
0.07706648
0.0022941723
-0.06614388
-0.023417233
0.030938065
-0.020842642
0.050834414
0.073957585
-0.038337495
0.08019027
0.063592955
-0.006005978
-0.04922187
-0.00057645596
0.06119628
-0.002788137
0.07380055
-0.014077302
0.013532417
-0.015602178
0.087050356
-0.036691587
-0.07604973
0.046372928
0.013292967
0.06586488
-0.04279536
-0.051164243
0.07410338
-0.037206113
0.03561547
0.024420721
0.0028627617
0.043069437
0.036026414
0.006583753
0.06975666
0.017399982
-0.08293624
0.08417442
-0.07005515
0.00067484204
0.13460602
0.039574582
0.086802356
-0.06895933
0.0069733625
0.018729152
0.08398662
-0.07732774
-0.012804613
0.03609753
-0.053043045
0.034003876
0.050118797
0.08078553
-0.01390753
-0.039093208
0.0229213
-0.057801597
-0.053358786
-0.07113157
0.0026468453
-0.056645896
0.015202475
-0.037652645
0.023107978
-0.06615676
-0.018548673
-0.05394748
-0.003003659
-0.02242297
-0.007389149
0.0329474
-0.051512867
0.077459976
0.02089033
-0.021050144
-0.0389421
-0.021812549
-0.04490425
0.042988013
0.011293135
0.0720577
-0.01829396
0.07238629
-0.0071340892
0.019446077
-0.03027009
0.041886747
0.060595404
-0.061519872
-0.06450809
-0.0014462732
-0.066546805
0.018148994
-0.02605941
0.0074387477
-0.07191731
-0.01330082
0.0070946068
-0.051459562
0.06219516
-0.08317097
0.0706114
-0.03013602
-0.011341445
-0.047263972
0.0028463854
-0.035257075
-0.0220072
-0.08492338
-0.07799461
-0.08166546
0.007334056
0.014476417
0.05353135
-0.07549615
0.06539199
0.005481112
0.026099794
0.085571885
-0.078033574
0.044368364
-0.04455848
-0.015195117
0.08842075
0.006124442
-0.048832275
0.015135447
-0.025434794
-0.02981758
0.060549036
-0.0048528635
-0.015279887
-0.05026259
-0.0587268
0.046717506
-0.04215567
0.051091492
-0.046351947
-0.043453608
0.055839695
-0.0075359796
-0.004225189
-0.026352054
-0.015801007
-0.058140617
-0.017959567
-0.060825527
0.08310459
0.042135954
0.029580748
0.0118976105
-0.068589285
0.017511047
-0.02297584
0.05642001
0.034567308
0.07539984
0.014153223
-0.09386851
-0.0077149775
-0.02453392
0.03187821
0.056301028
0.0008836725
-0.053561147
0.012497298
0.073675066
-0.05309195
0.004181293
0.07432837
-0.015507489
0.03973258
-0.038603693
0.029262913
-0.019728104
0.030980509
-0.019016055
-0.0071195513
-0.0011609595
0.008545527
0.0014634909
0.006184366
0.0134486845
0.02913726
0.062322017
-0.019918496
-0.066507906
0.023698004
0.07569534
0.052687638
-0.052193888
-0.00049093127
-0.017410688
0.026596041
0.062392343
-0.039095167
-0.018955255
0.021144914
0.015956247
0.091235034
0.07220415
-0.0050643384
0.0775206
-0.080377586
0.04532533
0.03320275
-0.06671325
-0.07173038
-0.033969507
0.024867311
-0.05366224
-0.08263523
0.003918298
-0.014675603
-0.042968303
-0.02401496
-0.00016967689
-0.054215055
0.047348797
-0.057357658
-0.059443306
-0.0015603489
0.0069437707
0.044273328
-0.03172848
-0.033683572
-0.11303083
0.018502446
0.045556802
-0.067370705
0.041156057
0.065430194
-0.049595445
0.039278746
-0.06914412
0.069437265
0.020057585
0.051144604
0.056791965
-0.063277245
0.057185654
0.046087407
0.0015520243
0.035645187
-0.049569007
-0.037492808
-0.0048881155
-0.038433403
-0.0522467
0.021110598
0.047502164
0.027906034
0.10660822
0.0022458965
-0.031905286
-0.0069370377
0.011852366
0.006625733
-0.0059018955
-0.056048367
-0.03726481
0.02964491
-0.07359155
-0.00920061
-0.04171102
-0.04654889
0.060725037
0.017703122
-0.09978594
-0.057596583
-0.052478794
0.08491223
0.0086566
-0.010729078
0.06844594
0.06572568
-0.020525608
0.008243736
0.013445868
-0.0541511
-0.013202318
0.022372233
0.029986445
0.049007338
-0.03972313
0.03678998
0.06324572
-0.053971205
-0.0652139
-0.075468324
-0.046123676
0.04337389
0.07853384
-0.071091145
-0.061847035
-0.064318225
-0.070273384
-0.046469275
-0.019294366
0.042212952
-0.028796583
-0.04753601
0.08383407
0.049967393
0.032923836
0.027354851
-0.091952555
0.08180046
-0.01328079
-0.077685
-0.0030085202
-0.054982603
-0.023610631
-0.021578727
0.01651319
-0.00092425494
0.051115688
-0.042600214
0.02540223
0.06543947
0.08463917
0.027569076
-0.020593876
0.010078406
0.06703935
-0.012983282
0.06603465
0.053943515
0.047972105
-0.054278906
-0.0060288343
0.03847261
-0.029389488
0.07028012
-0.08760463
-0.066294916
-0.061952308
0.024680654
-0.06190532
0.0040908866
0.03222834
-0.037416756
-0.0036292512
0.07985
0.019695334
0.0773943
-0.059489407
0.051806
-0.056157347
0.04643371
-0.002579974
0.034553006
0.053218987
0.07126841
0.060329366
-0.036730442
-0.015879434
-0.06915896
-0.033837445
0.06784238
0.05982605
0.08658069
-0.06398022
0.04954499
-0.0648645
-0.0030838125
0.054814734
-0.037916012
-0.058332287
0.055217184
0.06666359
0.019388383
0.051604714
-0.060265295
0.034362484
-0.05920791
-0.018128369
-0.07899141
-0.008226746
0.015642786
-0.04729063
0.02994179
-0.06332295
-0.052770495
-0.0647619
0.010355679
0.02928512
-0.088211685
-0.002095304
0.04677299
0.03264749
0.05977823
-0.00380118
0.067544855
-0.052137464
-0.095692374
0.075552635
-0.002061673
-0.045104768
-0.07234821
-0.028143972
-0.08610805
-0.058137182
0.006804844
0.040460937
-0.027775502
-0.03930616
-0.07800444
0.06627951
0.021166341
-0.04687459
-0.036068782
0.056370173
0.04239882
0.057003997
0.046928182
0.0374687
0.0609684
0.01930316
-0.086448014
0.06534171
0.094116256
0.011516897
-0.070075944
0.03259088
0.062003892
-0.008524433
0.0070324535
-0.010297398
-0.020950066
-0.05480952
-0.024838775
-0.016061174
0.03764942
-0.05383966
0.0056743002
-0.06974859
0.069073945
0.0020907316
-0.08012201
-0.072945215
0.042207003
-0.0064757923
0.08269327
0.07774859
0.020093387
-0.07281749
-0.009420322
0.07294071
0.044608284
-0.043873064
0.0015990678
-0.08552921
-0.07536821
0.08887678
0.0038222822
0.06081324
-0.04727074
-0.0014622154
-0.050717615
0.047436368
0.07658043
-0.04830742
0.089461856
-0.05992603
0.06315082
0.042414986
-0.0027005193
0.037163883
0.058396444
0.06385758
-0.045809202
0.009259052
-0.029721066
0.07029713
0.014303753
0.08408578
0.05078197
-0.05846593
-0.03165423
0.046152648
-0.04323098
-0.039294474
0.023126692
-0.03987111
-0.017032433
0.038457163
-0.04017842
-0.08071118
0.035198014
0.02221072
-0.008069722
0.0060799774
-0.02970009
-0.07484198
0.034488678
-0.013138344
0.040584773
0.086754866
-0.07773338
0.06598707
-0.01340325
0.06432052
-0.040530074
-0.025144031
-0.09118077
0.018793443
-0.01905864
-0.022001127
-0.024810122
-0.09052238
0.024976954
-0.033198874
-0.07428221
0.056334414
-0.0030837434
0.06380059
0.08746113
-0.009239942
0.050375436
-0.031086689
0.06660538
0.05667267
-0.066320345
0.024412852
0.05615521
0.029112265
-0.06176087
-0.07123468
0.07226427
0.072595894
0.039335724
-0.039507926
0.0139701
0.015867433
-0.016427718
-0.06079665
-0.043783806
0.040587507
0.014282287
-0.074967034
-0.03266653
0.018910358
0.046332814
0.058934703
0.03533204
0.055489145
-0.071231365
-0.073537186
-0.032209106
-0.06466929
-0.013088326
0.06669941
0.04085756
0.0633439
-0.051397115
-0.07333606
0.057016682
0.057697553
0.08851607
-0.07799761
-0.008422955
-0.036101248
0.023897
-0.0039331503
-0.06500755
-0.03567038
0.08214644
-0.066666275
-0.017985547
-0.07922997
-0.059506163
0.06988785
0.0653595
0.017727878
0.04653079
0.042081468
0.038960084
0.017321505
0.06563727
0.077492006
-0.06202571
0.015538981
-0.00693067
0.020770902
-0.02511928
0.057518855
0.027678037
-0.07254055
-0.014933179
0.07212254
-0.035167016
-0.06944921
-0.03724121
0.07151682
-0.06621299
-0.09151315
-0.011267811
-0.012416611
-0.07220228
-0.014866782
-0.02334274
0.0075440593
0.001990725
-0.079664566
0.029723307
0.0028601568
0.0706143
-0.03723874
-0.05456598
-0.042422406
0.018641721
0.081327975
0.019328149
0.047449436
-0.0046942104
-0.049330506
0.06699077
0.031458195
0.009453065
0.008782424
-0.07314052
0.01751887
-0.0072802296
0.07633772
-0.016862066
-0.06281909
0.048423275
-0.018501827
0.014243641
-0.009414924
-0.07549359
0.08846402
0.029604118
-0.028435497
-0.06523197
0.00023469601
0.05572685
-0.05922324
0.08766617
-0.021378547
0.037694268
-0.06843247
-0.059981573
-0.05282494
0.08481458
0.005030215
-0.015881823
-0.057692938
-0.035520297
0.028224675
-0.08318721
0.006959359
-0.010561424
0.045241904
-0.011736753
-0.06964853
0.018888805
-0.040637348
0.06398386
-0.029373478
0.035302326
-0.044573214
-0.0014814847
-0.0389464
-0.097511135
0.06039012
0.028381811
0.07706093
-0.006592255
0.027407018
0.056191757
0.053963993
0.0723835
-0.0797686
0.04967193
-0.046828263
0.06495775
0.001976546
0.056343216
-0.046362106
-0.016477674
-0.0034199017
0.034832533
0.023812797
-0.052913114
-0.014297102
-0.03393413
0.12516534
0.03441722
-0.0441407
-0.020198023
-0.05806644
0.035424847
-0.065914504
-0.0064735576
-0.04274404
-0.027246224
-0.060887046
-0.028005138
-0.040616512
-0.039754875
-0.012766721
0.020606583
-0.0007069998
-0.0421859
-0.024014944
-0.0003113585
-0.05509181
0.06810461
-0.012456174
0.07244585
0.021956827
-0.07813122
-0.00031950668
-0.06682012
-0.018457588
0.044519056
-0.0066930475
0.032125406
0.043001402
9.4062976e-05
0.020883132
0.05752013
-0.01394085
-0.030372001
-0.0642821
0.099697925
-0.09757872
-0.005481962
0.006631568
0.06920852
-0.028549863
0.04945777
0.06993681
-0.07667049
0.06714371
-0.049258
-0.009637054
-0.06568641
-0.03181867
0.06397261
0.02200569
-0.0033049008
-0.05241451
0.053731352
-0.016793739
0.06957845
0.042625524
-0.007286793
-0.06656896
-0.017109176
0.046528205
0.00636979
0.010246011
-0.014341922
0.018039208
-0.067092
0.042266447
-0.012282468
0.093739964
-0.071345784
-0.0013471111
0.08765506
-0.0047859447
0.0055239927
-0.07860437
0.022896167
-0.021491611
-0.027911898
-0.029846458
0.032120068
-0.054281373
0.018741764
-0.036191754
0.030678486
0.077142395
-0.030498056
-0.026154231
0.06865508
0.03924876
-0.06938824
-0.091219954
0.072613046
0.019481368
0.08471544
0.0059953383
-0.04361063
-0.043813147
0.08015857
0.045006476
0.030334858
0.06094332
0.042888734
-0.00030200224
0.060404632
-0.037425518
0.030739238
-0.006856391
0.06125688
0.062270958
-0.06504701
0.04116325
-0.06825278
0.038673826
-0.052564587
0.013223292
0.062585145
-0.011766579
0.04258194
-0.046529125
-0.007826186
-0.015277732
0.007841217
-0.05996505
0.11018468
-0.08752799
-0.0284289
0.08181459
-0.09455816
0.01922003
0.04174308
0.02633273
-0.07470282
-0.08886684
0.051260795
0.06465417
-0.06253994
0.06808461
-0.057346936
-0.04851349
0.046856858
0.025712518
-0.0029903976
-0.050615337
-0.06223968
0.0012173417
0.07881897
-0.06629854
-0.02671077
-0.035461698
-0.06130324
-0.004020537
0.011676837
-0.011082861
-0.015595202
0.08437992
-0.015489589
0.052910663
-0.031358972
0.0054736757
0.021360125
-0.029506518
-0.021929123
0.07589828
0.021708619
0.085097164
-0.019869003
0.010730983
-0.05902961
-0.086827904
-0.030197848
0.0384323
-0.00010457388
-0.06630783
-0.02085676
-0.0626222
0.01940191
-0.030376786
-0.016043002
0.06679247
0.014725656
-0.03446658
-0.034825817
-0.006437244
-0.015280891
-0.027810095
-0.075636774
0.01513548
0.053789787
-0.032626845
0.05561842
0.07057896
0.047263626
-0.07779188
-0.00022408426
-0.0521167
0.063531496
0.081725016
-0.021880152
-0.026555195
-0.011958538
0.061636996
0.069126114
-0.03274066
0.0061789025
-0.003339021
0.009897993
0.04567857
0.07639124
0.051488947
0.07318684
0.06177557
0.0098647
-0.039595813
0.065125145
-0.055466812
0.03374525
0.019639077
-0.013180146
0.06943421
0.060155105
0.0660624
0.031985853
0.0649405
0.075850934
0.013432688
-0.063792706
-0.07001264
-0.07189996
-0.052233107
0.08399202
0.10455732
-0.001160564
-0.04884036
-0.0789138
0.04341311
-0.041658368
-0.04091136
0.002285204
0.028542612
-0.023724793
-0.01054141
-0.016916659
-0.04257722
0.034479488
0.07449663
-0.050495617
-0.046217855
0.091874175
0.043894365
0.0442118
0.010812209
0.077918895
-0.034050193
0.030429343
-0.00752213
-0.05340264
0.100181445
0.07926689
0.028616246
0.04367141
-0.009063529
-0.038649794
-0.025077758
-0.00842504
0.034971338
0.0407537
-0.06318518
0.055230074
0.0592519
-0.024674838
0.008681196
-0.017940877
0.050613094
-0.018187625
0.088733256
-0.08763704
-0.011245353
0.010037322
-0.054398354
0.10514966
-0.053742204
0.048537873
-0.031504244
-0.034359995
-0.032693494
0.07835213
0.027217818
0.0636061
-0.0058675315
-0.07220891
0.11005594
0.003043571
-0.06511173
0.03424904
-0.022746189
-0.07864966
-0.04501358
0.05828211
0.009190331
-0.031816065
0.07384789
-0.010414649
0.0964164
0.04452895
-0.051621318
-0.07282473
-0.0050846883
0.13287494
-0.068263456
-0.009291101
0.061855156
0.06372842
-0.0014561441
0.121822976
-0.008666513
-0.024334876
-0.0949621
0.04135614
-0.0613461
-0.00016881201
0.04637467
-0.04596334
0.0900525
0.044961628
0.09334923
-0.05273616
-0.012166493
-0.034280412
0.005976228
0.017938875
-0.0024802347
0.07396452
-0.003914996
0.06682411
0.0760097
-0.04292885
-0.06118609
0.08052946
-0.060197093
-0.014188453
0.050745524
-0.039893735
-0.038733184
0.059521873
0.05969623
-0.016397875
0.034773212
-0.03676957
0.011041747
0.029895104
0.07238647
-0.05183848
-0.0674722
0.038737033
0.07905451
-0.08708091
-0.06161325
0.06293816
-0.0043043206
-0.03193409
-0.009964812
-0.056641582
-0.004344733
0.07758305
0.0027714877
-0.054456256
-0.06353789
-0.06843558
0.09147462
-0.075238295
0.0047770776
0.011755461
-0.07841098
-0.07162595
-0.06939671
-0.054364756
-0.019112077
0.093751326
-0.012571822
0.0832769
0.08054626
-0.07126028
0.01842403
-0.04242378
-0.0282042
-0.08263624
-0.029357005
-0.079937
0.04457427
-0.09455106
-0.03941867
-0.02794455
-0.06459806
-0.03453015
0.047029216
0.09303025
0.010297729
0.024960987
-0.062047437
-0.015807755
0.015990373
0.112739265
0.056100916
0.04171567
-0.058262512
-0.08250989
-0.05608757
0.064163335
-0.05880512
0.006715594
0.08151767
0.049714126
0.03546253
-0.06294433
0.02202487
0.05954716
0.08437602
0.07042902
0.03981329
-0.013452408
-0.06302568
0.016670313
0.040123656
0.075624146
-0.051775552
-0.031792384
-0.006850596
-0.035188697
-0.06730557
0.046240497
-0.06722667
-0.0040560737
-0.0581562
-0.056448996
-0.031502217
0.0028602874
-0.0044154422
-0.044683054
0.044686254
-0.07459191
-0.047468122
-0.052188613
-0.066044554
0.08052739
-0.041578438
-0.07634681
0.015559195
0.04507193
0.029329678
-0.03312692
0.05540579
-0.013186451
-0.029104307
-0.07476386
0.06653965
-0.017521707
-0.03748981
-0.008090504
-0.009121024
-0.012948326
-0.05486527
-0.018595457
-0.008335609
0.06892283
-0.012226817
0.038908392
-0.0109052835
-0.0034834396
0.050301336
-0.073547825
-0.044547882
-0.014131418
-0.05005317
-0.065495625
0.0155775
-0.015129816
-0.057524197
-0.046792265
-0.0072924052
0.03089887
-0.06811927
-0.022775127
0.029561682
0.02638911
0.055515334
0.07745549
-0.046841517
0.045463134
0.058916222
-0.028474322
0.0025776764
-0.07828256
-0.06662863
-0.043956187
-0.10297733
-0.084647544
-0.06373695
-0.018327432
-0.00020712054
-0.05879386
-0.024420597
-0.045135736
-0.01682381
0.037459586
0.021000236
-0.08398139
-0.037191033
-0.004682945
-0.10127798
-0.044072397
0.035464317
-0.03691325
0.0783154
-0.07201918
0.022019004
-0.059605718
-0.032014884
-0.018104374
-0.06961877
0.01028845
0.030421944
-0.041250497
0.07914576
0.08080204
0.011485239
-0.039469495
0.060032263
0.07744694
-0.037745964
0.043140605
-0.02530803
-0.037826736
0.1108033
-0.07744628
-0.019577824
-0.051201746
-0.0015396974
-0.010535591
-0.06602426
-0.024610974
0.054130297
0.089506075
-0.0744523
-0.034075227
0.065394975
-0.060226344
-0.087681785
-0.0071361284
-0.018535824
0.05639597
-0.03566255
0.052806687
-0.0019341155
0.008626023
0.04020521
0.05857432
0.060448118
0.07407898
-0.05617859
0.02162266
0.022845078
0.050693277
0.1140122
0.016307661
-0.04097327
-0.021127254
-0.029593728
0.091261014
0.047343504
-0.015201143
0.019610066
0.03928843
0.068102464
-0.07746636
-0.04902547
0.0009981103
-0.05910205
0.009606901
-0.033378214
-0.07155501
0.024888704
-0.064260624
0.06284857
-0.03709629
-0.030957898
-0.0075197057
-0.053713568
0.09952262
0.07750648
-0.018411607
-0.083883636
0.06202639
-0.0070698466
0.08567588
0.037989087
0.06507717
0.0020697655
-0.048742324
-0.06583428
0.006445567
0.08791668
-0.05133732
-0.061213277
-0.065905735
0.09104161
0.024482997
-0.022364505
-0.06366056
0.019072518
-0.02235211
-0.05164268
0.05113723
-0.06756178
0.02432572
0.07526683
0.051287085
0.084352046
-0.07395395
-0.013101272
-0.02971453
-0.011720563
0.06409991
-0.05422098
0.027326984
0.04669484
-0.035722706
0.03681522
-0.024110857
0.031051243
-0.037861858
-0.030903911
-0.009664409
-0.027919684
-0.015098329
-0.06276292
0.058624167
0.07189249
0.0678271
0.07705846
0.007484359
0.089719556
0.023665676
0.019623004
-0.028790148
-0.037272453
0.0486868
-0.033340774
0.023095137
0.07935158
-0.029288417
0.0047817808
0.034833364
-0.05566088
-0.018915163
0.0039579915
0.020844262
0.07476993
0.05633373
-0.0013361673
-0.07336602
0.06255748
0.06457769
-0.04268597
-0.065380245
-0.0059961723
-0.06358233
-0.027747182
0.06822523
-0.0184228
-0.048256006
0.012696025
-0.07333177
-0.01178136
0.06591267
-0.077429324
-0.06201285
0.0029917029
0.013673126
0.03703473
-0.03287255
0.050368104
-0.08433429
0.05115328
-0.066264704
-0.019707488
-0.079965435
0.063778505
0.06893247
0.08966556
0.028258009
0.05226859
0.005657744
-0.075651385
-0.066432565
0.03627617
0.044622276
0.014369883
-0.079703204
-0.040587947
-0.07425114
0.019478064
0.020407649
-0.011247776
-0.037379112
-0.03824798
-0.009929663
-0.041928284
0.083092414
-0.065563545
0.040656984
0.0059847333
-0.05422163
-0.026961962
0.063485704
-0.041757103
0.058767278
0.07152181
0.070548125
0.06699299
0.0062896935
0.04320093
-0.10835775
-0.06447095
-0.03547007
-0.023756456
0.03727894
-0.027776815
0.039921053
-0.05043448
0.001130357
0.03840303
0.08166351
-0.056028888
-0.06769721
-0.021694392
0.017359082
0.075518414
0.019572183
0.010325772
0.0009785324
-0.012866839
-0.05952871
0.031016277
0.07723139
0.02262211
-0.06428434
0.05235227
-0.09373249
0.0620775
-0.011951514
-0.020110963
0.06527709
0.08672707
-0.049489573
0.010158945
-0.02631685
-0.023806976
-0.07265362
-0.060973886
-0.074343204
0.040403757
-0.041997235
0.005696159
0.0026027628
0.04961703
-0.0054090284
-0.0804674
-0.017024772
-0.05659658
-0.069649585
-0.079635516
0.0733619
-0.027736349
0.0059604053
-0.08376133
0.003088883
0.041429132
0.025968613
-0.09081944
-0.017481921
-0.060095046
0.02660195
-0.07492177
0.016445644
-0.05889232
-0.038896557
0.036950137
0.01401539
-0.010518885
-0.06231258
-0.061289616
-0.043460194
-0.038693953
0.046945527
0.06303509
-0.015062027
-0.014162181
-0.0027213215
0.024229964
-0.03288867
-0.01750101
-0.055432763
-0.00097410823
-0.0031996467
0.044879947
-0.04037068
-0.0104113305
-0.03150956
-0.03868849
0.053352475
0.059770174
0.009614405
-0.034351815
-0.04298218
-0.043265413
-0.037350815
0.035402946
0.07640267
-0.07031698
-0.053666733
-0.07856911
-0.028710129
0.053318832
0.027823793
-0.041035257
-0.063548796
-0.048263557
0.00896405
0.06935852
0.039382078
-0.034733057
-0.036927674
0.039089058
-0.016721612
0.068453334
0.06978365
0.047226824
-0.08495274
0.049517155
-0.0096720075
0.07217809
0.026279211
0.0077594947
0.041933816
0.09947883
0.066727325
-0.080923244
-0.03870268
-0.021420619
0.056241464
0.029255139
-0.058818642
0.07671781
-0.035331987
-0.055999056
-0.064287834
-0.044710293
-0.06894121
0.0542975
0.023558363
-0.011941169
0.0048175547
-0.036126785
-0.030110152
-0.048818838
0.047727015
0.07230129
-0.043935258
0.033714026
-0.03067986
-0.061550215
0.07445691
0.025571326
-0.047069035
0.07113078
0.06508964
0.0023693566
-0.058250025
-0.030897783
0.08826186
-0.06634411
-0.03855222
0.0896112
0.06175731
-0.08275425
0.04012784
-0.019402813
0.03849898
0.046034
0.03508704
0.09610998
-0.078909725
-0.0844913
-0.03972881
0.068249784
0.09630155
0.027990818
-0.017967014
-0.028795712
-0.0014853092
0.016086996
-0.033534143
0.020542625
0.09724442
0.028175281
0.078895405
-0.026510205
-0.0754383
-0.024621727
-0.026211744
0.025511896
-0.050428156
-0.08960057
-0.089768015
-0.029617464
0.045278292
0.01113905
-0.016804382
-0.042479645
0.025768228
0.017213179
-0.020783922
-0.07466234
0.014391895
0.039918944
0.038825117
0.035359785
0.05561774
-0.0046393126
0.07190824
-0.055527866
0.011516489
-0.017652612
0.04011432
-0.05250746
0.052483957
0.045481857
0.024699004
-0.0112000955
0.04789522
0.08984025
0.017899524
0.037524585
0.04237125
-0.04667097
-0.022598233
0.035737876
-0.016900338
0.05915767
0.041798614
0.007793302
-0.011153893
0.072700895
0.037314594
-0.016771344
0.072099686
-0.04410252
0.07520129
-0.064892985
0.088830575
0.019296497
-0.057078183
0.040649354
0.0033000396
-0.07640498
0.0026422462
-0.0006816401
0.07004866
0.035489805
-0.026050529
0.064744495
-0.059094146
0.048090093
-0.02420302
-0.025885403
0.06711957
-0.027194468
-0.0909329
-0.06513827
0.038452458
0.024056248
-0.02120208
0.05528733
0.0083864285
-0.04157633
-0.07324774
0.05045823
-0.076473035
0.003915042
0.04352502
0.08378547
-0.032061826
0.07647695
-0.07318181
0.014812407
0.049335454
0.017484441
0.10064786
0.013160874
-0.037354875
-0.03584069
0.061050076
-0.0105855595
0.0052465587
-0.06062992
0.003040773
-0.07376547
0.036182743
-0.08184198
0.07377382
0.10163583
0.07490362
0.031259373
-0.012271615
-0.060770746
0.039464787
0.070801266
-0.06201752
-0.06483745
0.091567434
-0.06649113
-0.034630828
-0.072820865
-0.060920108
0.09814322
-0.025445491
0.009497015
-0.010718001
0.022895161
0.016120436
-0.054934837
0.073495604
-0.06443204
-0.047048226
0.021280477
0.054245003
-0.011744338
0.002771537
0.031599
-0.07833745
-0.046858475
-0.0048831594
-0.03437013
-0.086523354
0.065832846
-0.009976198
-0.06274581
0.07917792
-0.051117584
-0.04041357
0.03445294
-0.008169163
-0.06888637
-0.055695333
-0.0052967547
0.0042359377
0.061622262
0.030410038
-0.05884977
-0.003737012
0.043258607
-0.031160552
-0.024342902
0.008092371
-0.02115744
-0.022937365
-0.04881902
-0.0017610939
0.07697334
0.014663512
0.016216783
0.054658335
-0.004063841
-0.02721704
0.0606135
0.013823822
-0.015082991
0.050377004
-0.051457047
-0.0056016142
-0.0015571913
0.07977648
0.024713112
-0.06661384
0.025076559
-0.06697159
0.009394996
-0.019078989
0.015712291
-0.014150176
-0.0015383722
0.048315205
-0.04280519
-0.03114329
-0.030370587
-0.0016555276
0.05480552
0.08002778
-0.031431984
-0.010778044
-0.04800338
0.056566626
-0.020003583
-0.029068792
0.04343162
-0.07617863
-0.03638928
0.033517566
-0.0002894994
0.016019344
0.019873085
0.027198208
0.021257807
0.009949175
-0.054303624
-0.029275462
0.041541755
-0.04535751
0.07514538
-0.05043972
0.020274453
0.058648285
0.05511749
0.016194893
0.029462805
-0.0013744145
-0.045497075
-0.009111368
0.028216224
-0.031051282
0.026921576
-0.06568233
-0.026620395
-0.0433192
0.054108597
-0.047095492
-0.0047308924
-0.046525344
-0.043254603
0.04211217
0.076832905
-0.041475374
-0.0032066558
-0.045839105
0.006470805
0.024421345
-0.043382972
0.0068049235
0.042973764
-0.08721489
0.0012668147
-0.043517917
-0.03407653
0.07228234
0.07425654
-0.013918785
-0.051113125
-0.07282777
-0.07447959
0.012598223
0.0027563048
0.07155629
0.05325925
0.018948728
0.050859395
0.070859246
-0.07789089
-0.027291344
0.074959725
-0.06630541
0.035720635
0.023807468
0.060230315
-0.021644363
0.0013696349
0.062338065
-0.018658468
0.06228299
0.0036388752
-0.013326584
0.048591588
-0.050142027
-0.015794754
0.05021671
0.058778662
0.03738096
0.05957323
-0.024899703
0.06471874
-0.0042327433
-0.06873812
-0.070587344
0.057550278
-0.015648544
0.0546306
-0.044630166
-0.016195307
0.07010581
-0.07698532
-0.09795586
-0.028960317
0.022657713
0.032721356
0.04894271
-0.072980136
-0.07968293
0.015015076
-0.08281743
-0.017803742
0.04216736
-0.07608244
0.09020613
-0.067520045
-0.034387354
0.049160436
-0.07916843
-0.072743416
-0.03879967
-0.016445287
-0.017570239
0.004839952
-0.035148412
0.0038358956
0.05604261
-0.049937762
-0.037089735
0.05158174
-0.04062631
-0.023161614
-0.03489816
-0.022944152
0.063886024
0.052615255
0.035876878
-0.027215945
-0.0062196236
0.006149578
-0.07613605
-0.029264394
0.033451788
-0.076160796
0.058475666
0.025653228
-0.054182623
0.052069567
-0.069760926
0.051004503
0.059649594
0.035924565
-0.020164173
-0.050833497
-0.049587198
0.07630616
-0.018331949
0.050478194
-0.0536592
0.027714714
-0.0835332
0.0029785393
0.012003949
0.07837282
0.033811644
-0.047654204
0.028597185
-0.013856605
-0.023795323
0.0018511527
-0.0055109975
-0.050437998
0.044372126
0.036724046
-0.056341153
-0.07791329
-0.07550045
-0.04560967
0.038198862
0.041427795
-0.06758473
0.04140514
0.019603092
-0.027618943
-0.06778564
0.0770388
-0.034519177
0.05276382
-0.07480025
0.029947707
-0.06544849
0.01302743
0.053147264
-0.014794883
0.008858057
0.05775776
-0.00025660614
-0.04287998
0.092762
-0.07210987
-0.02510399
-0.040813528
-0.044468343
0.06771227
-0.036142867
0.058723625
0.04999747
0.05209099
0.046841867
-0.036090363
-0.012151804
-0.0045945398
0.016855907
0.07541371
-0.020924622
0.06879995
-0.029954733
0.04743612
0.010019616
0.05789304
0.08273775
0.0322038
-0.071308054
0.05926709
0.07937247
-0.054362275
-0.0022686094
-0.005487941
-0.037073478
-0.044328947
0.031499937
0.069984734
-0.036463678
-0.010384963
-0.074488215
-0.081576206
-0.049964063
-0.072359316
-0.055673108
-0.048935592
-0.021297256
-0.011780634
0.049486812
-0.08430033
-0.06148185
0.033831295
0.07192363
-0.06299325
0.08955948
-0.07085942
-0.06455517
0.03375489
0.082518905
0.03198736
-0.03156613
0.07354501
0.019233985
-0.0704532
-0.049664076
0.018886853
0.011148439
0.06213711
-0.04305022
0.004106311
0.075532846
-0.030358236
0.0117151
-0.026753133
0.0029557382
-0.071457475
0.016726224
-0.0008250124
0.0694985
0.009761018
0.08030163
-0.016202549
0.014347083
0.028496947
0.046545226
-0.013552725
0.028763995
0.046917308
-0.026169384
-0.047794007
-0.034201108
-0.06723994
-0.06451608
-0.06766806
-0.022229355
-0.047149353
0.061599225
-0.04025872
-0.04762652
-0.022526592
0.038035724
-0.011110257
0.08024986
0.074307695
0.10872571
-0.058742605
0.07848979
-0.014241311
-0.0036834686
0.055020485
0.019629072
-0.02063949
0.049758304
-0.03647216
0.03534909
-0.04530653
-0.024011638
0.059975922
0.02546537
0.058262408
0.05253889
-0.053773683
-0.05209701
0.046029173
-0.064869985
-0.030236153
0.04000827
-0.044625018
0.020194167
0.054618564
0.08513029
0.07189678
3.0437392e-05
-0.05746871
0.037769765
-0.043552447
0.008701777
0.0630901
-0.015229604
0.025841273
0.033113144
0.040432155
-0.079631634
0.082035884
0.03973849
0.07727548
0.039611835
-0.066205405
0.022002554
-0.052127454
-0.07228814
0.0787759
-0.015440182
-0.010814164
0.038369283
-0.011022605
-0.016615147
-0.0630981
-0.009687281
-0.058062065
-0.03438069
0.08265595
0.022502322
-0.015816318
0.05356382
-0.039173003
0.026146976
-0.02061369
-0.04044543
0.03842495
-0.09087652
0.003464549
-0.009687897
0.007315287
0.040438812
-0.06102502
0.046499096
0.009460302
-0.06530867
-0.016341722
0.05140468
0.020986753
0.06543962
-0.058119234
-0.031867296
-0.03658383
-0.012444987
-0.052692868
0.0753177
0.09816683
-0.013230095
0.03709948
0.027695166
-0.035370424
-0.014459673
-0.03182041
0.07236549
-0.06554051
0.08915434
0.055178475
0.075006194
0.012424808
-0.015512432
-0.059477635
0.03949871
-0.050847948
-0.07290949
0.013510406
0.051551457
0.06530803
-0.031285517
0.0003050963
-0.06149867
0.01453111
-0.023887401
0.06357388
-0.08232068
-0.09501446
0.095675476
0.045983475
0.088243596
-0.059111707
-0.058882665
-0.027942315
-0.061972607
0.0013285186
-0.043554347
0.0021281145
-0.052621365
-0.04255676
0.073109314
0.058772027
-0.003998749
0.011745714
0.05586515
-0.032988336
-0.059185788
0.04725389
-0.026618158
-0.038670193
-0.02726452
-0.09641381
-0.0074264915
-0.0066191726
0.048069358
0.0019464015
-0.066772126
0.04591383
0.013612175
0.067232564
-0.091833696
0.030812692
0.026800523
-0.021202486
-0.052913133
-0.07900577
-0.058712043
0.050665583
0.07668753
0.02807853
0.08354457
-0.039758064
-0.02132291
-0.042837057
-0.0040107258
0.11056439
0.02084139
0.062897764
-0.067255154
-0.021135246
0.04935784
0.028493421
-0.036143735
0.026115458
-0.015973695
-0.0130570615
-0.07426325
0.0135671655
0.06689664
-0.09191715
0.039988905
-0.048465874
0.046936512
-0.007111668
-0.044027183
0.0351297
-0.10066556
0.06143137
0.057483822
0.09177203
-0.038632523
-0.016063869
0.019357834
0.020700116
0.006275503
0.050450284
-0.06667173
-0.008926962
-0.031691324
0.0617795
-0.07517818
-0.07732257
0.0027080523
-0.07095716
0.08019731
0.07374827
0.023452612
0.014542679
0.065159634
-0.074356854
-0.037410572
0.047855183
-0.0012954216
0.08590564
-0.06962137
0.03849822
0.0071998555
-0.020803388
-0.057899818
-0.03611635
-0.071100146
0.085775875
0.079199575
-0.02620731
-0.052747678
0.067587614
-0.07341339
-0.062364876
-0.0038453217
0.038405377
0.07054624
-0.002945422
0.03197816
0.04310543
0.0678996
0.05697826
0.046130233
-0.02994359
0.07503476
-0.07306897
-0.0027188677
0.092058904
-0.013111321
0.021535767
-0.022485854
0.03543686
0.051988654
0.09830669
0.07073942
-0.027407369
0.07350869
0.0779131
0.016988367
0.016345311
0.018340504
0.061564714
-0.04699959
-0.071678355
-0.08323987
-0.0835744
-0.009237695
0.0027358148
0.015509906
0.071783386
0.030632664
-0.08198999
-0.053216666
0.0039710933
-0.056151003
0.054868676
0.060634665
0.015285619
0.0015289255
-0.03256333
-0.05004157
0.057072747
-0.034101658
0.08181846
0.046457965
0.032957163
0.01883742
0.02151247
-0.039497837
-0.0057696356
0.03181626
-0.02932078
0.05088712
0.00392304
0.04317352
0.02415502
0.055120293
0.08425387
-0.03682126
-0.06676161
0.0397254
0.021924574
0.011129612
0.08310714
0.100142285
0.017667273
0.040483996
0.01671617
0.10605765
0.08234092
0.091304734
0.04116815
-0.01951711
-0.0028701825
-0.015945291
-0.040901806
0.0008087951
0.02663821
-0.01765028
-0.03221257
-0.0059671146
0.028725551
-0.07492674
-0.038415305
0.06904292
-0.061217565
-0.023036905
0.027340675
0.090348125
-0.020232191
0.027106557
-0.07280176
0.0342563
0.044334717
0.018870642
-0.019374808
0.045745794
-0.05573843
0.031381495
0.059444852
0.031934116
-0.034250148
0.08481698
0.014053251
0.033787467
0.07295155
-0.06415283
0.014578227
-0.08871104
-0.038924407
0.07836737
0.0632708
-0.07573674
0.032770272
-0.03683999
-0.026766285
0.058624826
0.02386044
-0.051086687
-0.00087079586
0.030481143
0.0064176805
-0.044557467
0.0561685
-0.055657648
-0.10513367
-0.079021975
-0.030960826
-0.075373985
-0.028002005
-0.053735316
0.045622014
0.022604488
-0.052899998
0.061879233
0.011276093
0.0033807487
-0.04366878
-0.010598351
-0.0826465
0.026103847
-0.03814771
-0.046213165
-0.07639008
-0.058878247
-0.042637628
-0.08497116
-0.01339433
0.028320359
-0.0030994683
-0.011245047
0.049568404
0.057952374
0.03918507
0.016566629
0.030748365
-0.08817903
-0.008328061
-0.01652835
0.025274452
-0.07775193
0.003040582
0.025812814
0.021171197
-0.09467581
-0.037858948
-0.0876999
-0.021907533
-0.047572102
0.05264743
0.048556767
0.054118145
-0.07339761
-0.070189536
0.024915302
0.06334704
-0.06397301
-0.06009983
0.11618974
-0.06663249
0.020657694
-0.029195111
-0.040193662
-0.0037187822
-0.040201996
-0.021433514
-0.05697983
-0.033599224
-0.00033149906
0.070164174
-0.046089537
-0.03187667
-0.03291141
0.031522553
0.020615464
-0.047736466
-0.004559103
0.08528124
0.04197963
0.04465264
0.07809808
-0.03427221
0.014995267
-0.0028731984
-0.02407486
0.088588096
-0.03135747
0.027846335
-0.03817657
0.0090756435
0.034560982
0.11780029
-0.038929787
-0.010673259
0.05136187
-0.045190588
-0.014636747
0.06554704
-0.048913326
-0.025567044
-0.01936686
-0.021958724
0.027036808
-0.06515545
-0.011037325
-0.0051899473
0.10400813
0.05571784
-0.038873546
0.0060782903
-0.032971684
0.083663516
-0.050915327
-0.05248763
-0.017297583
0.06341175
-0.060240474
-0.092958964
0.0420324
0.011060476
0.06889179
0.04103324
-0.023073906
-0.097511016
-0.038152922
-0.039343104
0.027711486
-0.006850752
0.111287005
0.013292515
0.0031008606
0.08919752
-0.0042255064
0.012606931
-0.054886837
-0.03456882
-1.530185e-05
-0.06075073
0.04936014
0.015972922
0.0003912582
-0.08703233
-0.061687525
0.057470586
-0.05153489
0.015659178
0.043940715
0.07888782
-0.00012378655
-0.016630901
-0.07693622
-0.04375882
-0.0071342173
-0.0020463245
0.02806338
0.04933098
0.070595995
-0.04883664
-0.016106647
-0.08027273
0.05144499
0.084135935
-0.032561816
0.054867372
0.003022931
-0.10234446
0.06686977
-0.07894217
-0.07121636
0.047822077
0.070907615
0.04065897
-0.034114648
-0.074420474
-0.062004335
-0.011129661
-0.037447777
-0.019259831
-0.06461736
0.08832649
0.04652407
-0.034529794
0.00818913
0.058835514
0.07713914
0.061831515
0.050532658
-0.022709979
-0.043202654
-0.070334025
0.055228867
0.04239349
0.047985755
0.03887957
0.034322128
-0.04765927
0.025353605
0.086819924
0.08278943
-0.08363036
-0.07012813
0.0893831
0.04612124
-0.043201365
-0.08849368
-0.06083171
-0.020000545
-0.08194609
0.031211684
-0.069708385
0.02994545
-0.020296957
0.07928695
-0.05363678
0.06180944
-0.07484128
-0.02984915
0.04840473
0.047617648
-0.0077452357
0.011443268
0.054053813
0.02473556
-0.015276026
-0.0065730126
-0.017416071
-0.08313948
-0.0134425005
0.05656998
-0.0049142917
0.02427741
0.026677417
0.024631497
-0.05701634
-0.075717874
-0.042987827
-0.040888127
-0.020722887
0.032109205
-0.048171062
0.080379404
-0.056566916
0.01885028
-0.057701074
0.072627105
-0.020539371
-0.01975287
-0.006992678
-0.067305356
-0.068236135
-0.057600252
0.024488434
0.040313415
-0.046539895
-0.03257883
-0.041549563
0.0019539464
-0.060188487
0.02046646
0.08171579
-0.057455063
-0.007859388
-0.063452646
-0.0045723603
0.029301113
-0.062441316
0.10168768
-0.013172088
-0.044246845
0.06890337
0.008308846
0.103047274
0.020279376
-0.07416847
-0.017820127
0.08483387
0.06261205
0.044955842
-0.052418564
0.033647224
0.0920506
0.0761616
-0.0207809
-0.043831177
-0.06338988
-0.09252691
-0.07207827
-0.021063386
-0.01608789
0.018861381
-0.07525449
-0.036780346
-0.018812861
-0.07637915
0.038696833
0.0158894
0.04932363
0.05284548
0.030565456
0.07750547
0.079872645
-0.043230414
-0.053220786
0.016113533
-0.027667385
-0.039566245
-0.003206866
0.044341758
0.04070511
-0.035800852
-0.037693523
0.010697203
0.069175094
0.03469506
0.075218424
-0.010279195
-0.06852152
-0.041639037
0.011722041
-0.05361828
0.067256674
0.0719055
-0.026599152
0.013263685
-0.0005820857
0.081838794
-0.059247877
0.066107236
0.066728756
0.022453204
0.004052373
-0.07289064
-0.03331589
0.03822866
0.006169425
0.07699068
0.08814267
0.005998853
0.016484987
-0.07462713
0.053901665
0.08178717
-0.03263804
-0.06452699
0.05529829
0.070278764
0.025000077
0.04451615
0.06668652
-0.03208075
0.020623386
0.06663089
0.061901066
-0.05883831
-0.007627918
0.01836822
-0.016421448
0.010701029
0.095324904
-0.07214177
0.029153662
0.070473336
-0.007055623
0.031292517
0.06312562
-0.091023
0.009728668
-0.057712745
0.025092402
0.029848592
0.028478751
-0.00040067342
-0.0843302
-0.04470825
-0.058659893
0.050218012
0.0033229357
-0.07335014
0.06248589
0.0624834
-0.028259788
0.0013155645
-0.053317666
0.027049646
0.051439803
0.010316547
-0.004747398
-0.037177768
0.074549675
0.063754804
-0.010870281
-0.06004922
-0.060024627
-0.06672374
0.01808749
0.06921692
0.1086001
0.080293134
0.07305924
-0.029220894
0.028412975
-0.026770465
0.0330378
-0.008679681
-0.061185405
0.04857228
0.011786068
0.09662312
-0.07225231
-0.05144968
0.027385434
0.018924382
-0.04993516
0.040501542
0.0097233225
0.03786055
-0.063166656
-0.05976884
0.05435588
-0.01704742
-0.0606469
-0.07614793
-0.0687907
-0.012386806
0.021809507
0.011895011
-0.008350829
0.03330991
0.0015060504
0.027304847
-0.049061373
0.078035355
-0.06908931
-0.06704281
0.015856553
-0.08232255
0.013533174
0.016412131
-0.029508272
0.08386049
0.042109244
0.036139246
0.0015247661
-0.025927521
0.031335488
0.037708998
0.028136272
0.003609835
0.07147529
-0.0022570873
-0.05843017
-0.024558384
0.05116662
-0.06300557
-0.05553214
-0.0827721
-0.07458373
0.07253237
0.071489275
0.009598069
-0.0918721
0.04112401
-0.02555471
0.048878033
-0.049603976
-0.04418464
0.04461114
0.057228915
-0.07504459
-0.08317798
0.013774144
-0.028611204
-0.023952976
-0.05195724
-0.008124489
-0.05402201
-0.0100389095
0.030506082
-0.039524168
-0.073457
-0.059998527
-0.08160579
-0.07224568
-0.03385061
0.070543565
-0.034832478
0.044866353
-0.052555695
0.04137769
-0.028086206
-0.00086256023
-0.04147122
0.05618988
0.025714468
0.07993142
-0.020491559
-0.0042023254
-0.060759168
0.059517607
0.10454414
0.0375601
-0.020621749
-0.06716077
-0.04824454
0.058063127
-0.08062012
0.0029916319
-0.02969363
0.056031164
-0.016141992
0.09201341
-0.07227169
-0.061372105
-0.004693569
0.09118632
-0.02244698
-0.061035726
-0.037532836
-0.034580372
0.056058582
0.014713379
-0.025526645
-0.046894614
0.010976151
0.012453772
-0.03527462
0.08340093
-0.038616687
0.031987503
0.048186794
-0.015472499
0.005218414
-0.003171078
-0.048019283
-0.03414142
0.035183355
0.0021460133
-0.012530281
-0.048630845
-0.034209486
0.10532212
-0.08088322
0.006645793
0.035366353
0.10061492
-0.06106247
-0.02757958
-0.0066052736
0.05383967
0.016610987
-0.07209734
0.0073132683
0.06676772
0.019913508
0.026205841
0.041406624
-0.019840144
-0.005314184
0.033238202
-0.05706991
0.0923962
-0.011106807
-0.04067855
-0.010416857
0.0026366403
0.018027667
0.06819346
-0.011131494
-0.0047498434
0.038432628
0.0047138943
0.07007399
0.012489594
0.03971619
-0.0056590424
0.04930678
0.04158432
-0.029684423
-0.022023728
0.08361068
-0.016019745
-0.03376979
-0.046454296
-0.019748991
-0.06327813
0.022282343
0.06925755
0.06934965
0.05365964
0.019572316
0.0571216
-0.071298406
0.031668916
0.056184903
0.046934433
0.028910784
-0.06369353
0.07922142
-0.024899565
0.021918263
0.06478352
-0.11899842
-0.051495057
-0.047860373
-0.05932913
-0.019717304
-0.00031390623
-0.008375126
-0.05766901
-0.0278743
0.1186817
0.046516996
0.013760199
-0.0082671195
-0.08065442
0.027411243
0.0077118855
0.0048324373
-0.05033915
0.017858716
0.06828847
-0.057384048
-0.015531264
0.082368635
0.07050314
-0.026730636
0.042184606
0.03946263
-0.029096622
-0.03687703
-0.06790004
-0.056823693
-0.05531169
-0.031659074
0.059333015
0.0128205195
0.052509405
0.05461488
0.027287878
0.0042976257
0.05609531
0.037206553
-0.0024039939
0.031078652
-0.07955146
-0.08220327
0.0747539
0.044874314
0.084175624
-0.044205032
-0.04341746
0.0044897944
-0.01806801
-0.017584048
-0.023178626
0.029099615
0.10124208
-0.04953479
-0.087863974
-0.062800966
0.036729872
-0.020602096
0.06442966
0.06477575
0.05216967
-0.010570012
0.08454393
0.120509654
-0.011721526
-0.081375554
0.057646554
0.0826612
-0.00415074
-0.0589877
-0.025971076
0.053626277
0.04770232
0.049210116
-0.05437683
0.011725243
-0.05314597
0.073455505
0.029084418
0.02600882
0.024849819
0.09729604
-0.015629346
0.03313636
0.019603578
-0.040446036
0.07650307
0.031201832
-0.07319088
-0.057081565
-0.044077728
0.086478986
0.027497217
-0.088809475
-0.032604754
-0.040059235
0.078253984
-0.0051184716
-0.064969294
0.038006194
0.08272451
-0.019083116
0.08279811
0.1039503
0.009318709
0.0005773879
-0.028584484
0.054909628
0.045860052
0.087507136
0.08611346
-0.02228936
-0.011550394
-0.011502382
0.037155136
0.037973437
-0.05164695
-0.05616695
-0.003336083
0.014976977
-0.03485463
-0.041574206
-0.065756604
0.01978685
0.042518947
0.009989369
0.033993214
0.005117973
0.07640862
-0.04070124
-0.04651371
0.027028926
-0.072293796
0.068239816
-0.035295706
-0.034194265
-0.088891976
0.0071328306
0.040674735
0.05228968
-0.0028630607
0.053288545
-0.055920824
0.0015576782
-0.092083976
0.028738892
0.09471482
-0.02072848
-0.0813043
0.042763427
0.0789679
-0.0034152686
0.03004781
0.014980065
0.004595684
-0.059767235
0.09725325
-0.026989883
0.08592457
-0.027718203
-0.013098842
0.08188987
-0.08691786
0.011341873
0.0071214456
-0.056605224
-0.00991285
-0.05548833
-0.018505488
0.030156607
0.015288563
0.032769494
-0.031151868
0.055439025
0.09241344
-0.05867945
-0.029173573
0.07324756
0.02481125
-0.083779484
-0.055155694
0.07865347
-0.07373034
0.038342904
0.067364894
-0.026142124
0.043142732
-0.07430969
-0.056873392
-0.007840741
0.05917454
0.043729734
-0.014595596
-0.06242896
-0.06739651
-0.041496024
0.086884685
-0.011896969
-0.016243612
-0.034221668
-0.082075804
0.06914451
-0.029100846
-0.08646863
0.042696256
-0.02754036
0.013235954
-0.06783179
-0.03047866
0.08047184
0.0037308033
0.012502248
0.08502401
0.09730728
-0.07047017
0.040761057
0.04056799
-0.028906686
-0.041432176
0.0024463304
0.038728356
0.037633948
-0.024771797
-0.031158209
-0.05576971
0.00673004
-0.05710377
-0.03540925
-0.02056927
-0.050368655
0.088912
0.08758648
0.06449615
-0.041906033
-0.07580972
0.012456288
-0.06408616
0.013950512
0.08437056
0.009613123
0.026856773
-0.0054454426
-0.05207128
-0.07165194
0.08919795
-0.09138452
-0.012733117
-0.012763702
0.014010213
0.09387168
-0.0682799
0.029953789
-0.026232785
-0.052854393
-0.013006872
0.08941443
-0.02413663
-0.00022482201
-0.059096295
0.007880082
0.09701267
0.06310874
-0.037882045
-0.003413468
-0.09917148
-0.023672044
-0.06381036
0.07751904
-0.01634066
0.10469855
-0.012820721
0.008905946
-0.0056954203
-0.038803313
0.020168599
-0.085639425
0.06222411
-0.009039745
-0.01106319
0.0810325
0.034820996
-0.018631872
0.013577629
-0.06044468
-0.046964314
-0.097657785
0.013409378
-0.027726399
-0.036932055
-0.036378007
0.015979227
0.051900547
0.023906194
0.021491017
-0.0055940608
0.044820905
-0.022394056
-0.03289275
-0.047129992
0.04492756
0.030465253
-0.044535868
0.03654924
-0.057504196
0.013081158
-0.048068453
-0.018247938
-0.0048458115
0.058506362
-0.03131951
0.00783787
-0.04317908
-0.055934742
0.07302431
0.064886495
0.052820444
-0.0408853
0.012208891
0.004280034
0.04357985
-0.026973749
0.037797187
-0.061888166
0.02009505
-0.08628235
-0.06238361
-0.052413348
0.022514831
0.05220016
0.021816645
0.05338462
-0.07272003
-0.058894023
-0.01597466
-0.06504222
-0.07842025
-0.06701577
-0.035984892
-0.049204703
-0.0021485337
-0.05089446
-0.04169183
0.011131426
-0.018362623
-0.04261065
-0.044864777
-0.04769496
0.0880893
-0.08006065
0.017463839
-0.071358904
-0.05472195
0.06242888
-0.08066834
0.024561452
0.02060642
-0.035656497
0.018563071
-0.041731335
-0.037756097
0.05962095
-0.07559622
0.032984395
0.017287957
0.06268441
0.07765082
0.02970223
0.017455615
-0.028082803
-0.060352303
-0.0912839
-0.03779377
-0.04479998
0.0039709434
-0.07994477
0.030244976
-0.060370423
0.091954485
0.04003724
0.04115224
-0.025558481
0.016765177
-0.0449245
-0.004339066
-0.018603643
0.034163754
0.002901876
0.048501555
0.020632138
-0.047521897
-0.09382572
0.0330367
-0.023353102
0.051479403
-0.07324166
0.059558045
-0.093725815
-0.046257485
-0.023694381
-0.042546563
0.07934555
0.03040508
-0.0551383
-0.05481675
0.0952937
0.043606598
-0.07371136
-0.049380496
0.050018493
-0.06626779
-0.06141608
-0.015355679
-0.0705099
0.012513682
0.04812295
-0.075004496
-0.031762242
-0.024020055
0.084043644
-0.03531878
-0.058882214
0.0210002
-0.0029483247
0.030807534
0.001769781
-0.025604833
0.02108818
0.054052938
-0.060541313
-0.034725465
-0.0014424382
-0.029963953
0.027689684
-0.035722222
0.04400505
0.07076614
-0.009505339
0.07809526
0.0542619
0.070362285
0.086607195
0.045265038
-0.050791692
0.023792228
-0.06383098
-0.08921929
0.02758333
0.0047510597
0.007223677
0.026260113
0.08230953
0.0023851586
0.047720417
0.0002437409
0.09778233
-0.042378567
0.06986266
0.040153347
0.009124395
0.08168487
0.007304963
0.05968097
-0.08601997
0.048788868
-0.02551581
0.07038105
-0.0642248
0.033975672
-0.039328713
-0.05506263
-0.02149239
0.063215226
0.060097754
0.031697825
-0.07980081
0.053775407
0.0430357
0.011224771
-0.013251014
-0.020419275
-0.0763154
-0.03530883
0.07981174
0.06733103
0.03972629
0.06229472
0.012656862
0.044725683
0.069775485
-0.023174517
-0.05188347
0.010739513
-0.029721458
0.049030352
-0.0060891006
0.0005910814
-0.003402159
-0.088053256
-0.005245578
-0.046829365
-0.045087777
0.05605228
0.01624705
0.01295477
-0.07788536
0.019180568
0.057177413
-0.02625998
0.06670732
-0.023792932
0.046424735
-0.044300295
0.0034950324
0.030492626
0.024423594
-0.026025457
0.0025031737
0.0694463
0.0034257532
0.056519136
-0.002843644
0.02402511
-0.07412645
0.026370551
-0.038166177
0.0050487686
-0.04458433
0.07882745
-0.018881071
0.028019153
-0.015678067
0.034428086
0.013826039
-0.039450105
0.048877127
-0.055125516
0.057837944
-0.0729866
-0.017037088
0.04705434
-0.021728637
-0.03923238
0.07881835
-0.046609916
-0.04572375
0.04099604
-0.051028166
-0.010011956
-0.06193902
0.046131242
0.08430147
-0.017391453
0.0070661325
-0.012589939
0.062555894
-0.0730657
0.009049881
-0.09319198
-0.022248283
0.02154201
-0.011932368
0.020906478
-0.07022716
0.06445458
0.034732718
-0.0508807
0.0026002023
-0.06792247
-0.050667275
0.09615797
0.044568606
-0.03341812
0.029254645
0.018699158
0.040137067
0.024076106
-0.047712415
-0.047295254
-0.034736004
-0.07805187
0.020124083
-0.065592356
-0.038263895
-0.06749526
-0.029048301
-0.010973157
0.010758054
0.05768817
0.046349544
0.107519306
0.06369318
0.031732712
-0.053618245
-0.067238726
0.038266268
-0.050215114
-0.043270662
0.08235318
-0.06928051
-0.021287289
0.008111447
-0.06818799
0.07565733
-0.057341788
0.050038338
0.061600436
0.029979488
0.09697577
-0.029860307
0.027720168
0.09264013
-0.021156365
-0.021458114
-0.012847
0.020833477
0.016124718
-0.00066595356
0.05825175
-0.066864446
-0.063514166
-0.067548715
-0.043761496
0.0029018407
-0.06602405
0.055823334
0.08678171
-0.07391877
-0.046740867
-0.016175276
0.0010345827
-0.051536705
0.094406165
0.05105509
-0.0053881183
0.050772168
0.020743957
0.020687925
0.086768314
0.067588344
-0.021525199
0.058625583
0.058484774
0.080911376
0.085275486
0.06369823
0.025723258
0.047955673
-0.019577367
0.025658356
-0.0967133
0.006304698
0.016796114
-0.014232489
0.05257399
-0.029135823
-0.049852915
0.019558871
-0.062903516
0.06955098
-0.052808974
0.009192479
0.0928866
-0.022391897
0.021517215
-0.07048371
-0.033794373
0.09105548
-0.042912714
0.0076639885
-0.03143426
0.011148825
-0.03339793
0.053549875
0.07605546
0.071676776
-0.06314372
-0.008007895
0.07671142
0.05723547
0.037509404
-0.07275738
0.057943597
-0.029359803
0.08617856
-0.06999848
-0.02007517
0.06351221
-0.06765162
-0.029371746
-0.044098742
-0.028172813
-0.07137867
0.0094109895
0.06690811
-0.053524997
-0.01477967
0.05900386
0.048646946
-0.06805692
0.049837664
-0.05516507
0.059186567
-0.01900317
0.012306047
-0.008742281
0.059728585
0.024786413
0.07599153
0.0350842
0.0697565
-0.009519295
-0.0448884
0.013444903
-0.013390172
0.015360533
-0.021825224
-0.04438909
0.02316451
0.03191989
-0.0058443453
-0.08441478
0.044988837
0.055906814
0.03738393
-0.0030946261
-0.035142116
0.030808838
-0.03970127
0.02443497
0.038000613
0.06714277
-0.022467189
-0.07592156
-0.078423925
-0.010738744
0.03156717
0.037537396
-0.084749565
-0.008775499
0.019437926
0.012837348
-0.052087694
-0.029990561
-0.007813741
0.074652
0.07147507
0.07588603
0.07187954
0.08856849
0.036006782
0.07408996
-0.0055101467
-0.07025309
-0.07034539
0.06536344
-0.04932739
-0.06290394
-0.012145238
-0.06193285
0.014824241
-0.08062459
-0.06564822
0.043306798
-0.0070708254
0.07547
-0.055613425
-0.041432947
0.030739516
-0.03409458
-0.05556698
-0.02448754
0.00048127552
0.06895234
-0.076481916
0.028845306
0.054278456
-0.0049455385
0.04753503
0.013761262
0.05060688
-0.04823972
-0.052356377
-0.08094547
0.027627746
0.0143140415
0.063293785
-0.0007107952
0.019705337
0.07103566
-0.049355
0.005650746
-0.018751523
0.06882647
0.024707552
-0.0030917993
0.053048722
0.031170063
0.022630662
-0.05673027
0.061201937
0.013747361
0.08181834
0.03891276
-0.051356588
-0.0067745065
0.018669086
0.073028736
0.0010505562
-0.053790227
0.038986653
0.067861654
0.03326537
-0.025417684
0.0011363592
-0.07365816
0.017290812
0.014407875
0.000886753
0.022879768
0.083724596
0.071423635
0.051035617
0.03804964
0.029182177
0.07649114
0.037227336
-0.04368485
0.0818732
-0.0046687503
0.07587423
0.0059567373
-0.063355684
0.04726235
0.076009504
0.059770327
0.06846098
0.062039096
0.03361958
0.030749073
-0.01747857
0.0702973
-0.06719824
0.064078905
0.07302455
-0.042033263
0.05494702
0.05541175
-0.06468461
0.029539065
0.0007962739
-0.039457865
-0.0099237515
-0.018296458
-0.0582251
-0.048187416
-0.027803985
-0.005166841
0.04378929
0.07190046
-0.07338186
0.031783137
-0.0056810207
-0.07525553
-0.014836555
0.09346865
0.07901787
0.052364536
-0.06458024
0.069840744
-0.059442256
-0.018552981
0.0121531915
-0.04136621
-0.0872167
-0.02616523
0.04941725
-0.0035519984
0.06605708
0.04097778
-0.030506337
0.03432119
-0.033019755
0.07485885
-0.041084424
0.08907102
0.0013459868
0.029821591
0.015048103
0.07674523
-0.012059779
-0.05150146
0.04485588
0.0495978
0.035476223
-0.07880819
0.0622124
-0.047885485
0.043479558
0.066875316
0.05191729
-0.036640804
0.023429232
0.011357728
-0.028766073
0.06338409
-0.03788603
-0.08723093
-0.0006425501
0.08184933
-0.063631594
0.08024338
0.002798613
-0.086522534
0.095472835
-0.054417986
-0.048694678
0.026836434
0.05699825
0.05676396
0.05772574
0.07204821
0.051096372
-0.044136878
0.087433696
0.03210669
0.028416196
0.09450367
0.03461518
-0.06436247
0.06954175
-0.048407383
0.0048623243
0.07146396
-0.07190972
0.013477704
0.093374394
-0.0424182
-0.043224063
0.09261667
0.07783762
0.011099173
-0.040778205
0.10147955
-0.05493768
0.038822144
0.008756513
0.042082075
-0.10050565
0.0780274
-0.036817778
-0.049138963
0.019728351
-0.08788891
0.065477714
-0.030255452
0.03275817
0.05727701
0.00516424
-0.044055756
0.0044718413
-0.0010244905
-0.015587575
-0.018392097
0.093347214
-0.0025537089
0.05637088
0.056202464
-0.06272335
0.026938222
0.09035556
0.0043099625
-0.021624343
0.06947486
-0.039761607
-0.028078394
0.07246654
0.07048782
0.07577234
0.009364543
0.085070476
-0.05965722
0.08721161
0.064458594
-0.06516126
-0.025013119
0.029944701
-0.013529748
0.027195783
0.0117118135
-0.019868152
0.09559835
0.01444067
-0.043311592
0.017556552
0.06603579
-0.012779755
0.002970865
0.013653866
0.001726925
0.042195
0.04347765
-0.013777687
0.0035801632
-0.005696552
-0.05989904
-0.0044542546
-0.006291933
-0.02583734
0.02279372
0.065742224
-0.04937645
-0.05074921
0.09145863
-0.08112018
-0.017728155
-0.002822163
0.050698288
0.06856447
0.016926728
-0.03658912
0.012686803
-0.050462708
0.037376925
0.063725024
-0.03673856
-0.09870047
-0.0015309862
0.10044048
0.067013465
0.09614455
-0.068088666
-0.06757346
0.02226134
0.035948116
-0.016789636
0.019981408
0.0013114578
-0.014462787
-0.06388118
0.05759437
0.037316356
-0.03981167
0.01790164
0.01914509
-0.025894776
0.014765519
0.00741542
-0.064257026
0.08198457
-0.06436281
0.06802405
0.011256801
-0.077061914
0.0003653308
0.035540923
-0.049826067
-0.014343987
-0.08150763
0.008907435
-0.04427565
-0.04615383
-0.05824944
-0.070600905
-0.075359866
0.06185651
-0.08339265
-0.040701587
0.064216495
-0.062225506
0.07066745
0.010118861
-0.012066959
0.033024516
0.051684648
0.0029667863
-0.018526256
0.06355116
0.019014891
-0.05187506
0.025231501
0.015127469
0.020046419
-0.055061538
0.07551186
0.0030616156
-0.053806398
-0.05776421
0.025814429
0.0015617647
0.033953752
-0.06355696
0.03507048
-0.054657895
0.09137648
0.05984131
-0.024190526
0.07119623
0.0057404344
-0.0061139436
-0.027782602
0.08475215
-0.04722286
0.068165265
0.04551093
0.052160498
0.061825726
-0.06071307
-0.04609352
-0.045875322
0.011361376
-0.040141314
0.055281628
-0.0366412
-0.017066855
-0.016012246
-0.061870053
-0.0081824055
0.020779522
0.0268738
-0.04740374
0.05910673
-0.07632289
0.043309033
0.070023306
0.016968617
-0.076728456
0.08644101
0.02492044
0.081595965
0.06851734
-0.015255966
-0.08811168
0.030288646
0.06508346
0.01632758
0.07832933
0.07437271
-0.007601648
-0.0018524418
-0.034781013
-0.0641697
-0.019019
-0.020297533
0.07156509
-0.049362812
-0.02286579
0.036391042
0.009189809
-0.055612486
0.0630685
-0.037094533
-0.071099386
0.06156346
0.04230066
-0.033141747
-0.02767607
-0.059655305
0.004894948
-0.08822534
0.048596762
-0.061487474
-0.06398286
0.073050134
-0.013024094
0.016918715
0.08637866
0.02332571
0.05280693
-0.018327055
-0.07295245
0.021773873
-0.031401012
-0.025237052
-0.00030926213
-0.046556428
0.052635357
-0.030843956
-0.06933663
-0.030926041
0.068708345
-0.02871815
0.07673167
0.09020738
0.0020263311
0.043424223
-0.027181
0.08012824
-0.07742755
0.0538909
0.037547775
0.082519315
0.009148292
-0.0089703575
-0.042031553
-0.04008347
-0.046219844
-0.010948292
0.08000916
0.06424118
-0.012963159
-0.024568234
0.05944152
-0.0325483
-0.11901195
0.10172768
0.036748145
-0.07786839
0.05895281
-0.01710065
0.12317763
0.014929094
-0.009520301
0.022222623
0.09351914
0.08409275
-0.01995135
-0.0393474
0.01223717
-0.08368198
0.078389995
0.06938355
-0.07861009
-0.016063428
0.021976558
-0.01451953
-0.03491819
0.028953033
0.06897956
0.05297589
-0.019001173
-0.0122778285
-0.051449478
0.016884917
0.08783062
0.022693817
0.033988137
0.0129679395
0.09413534
-0.01958389
-0.05055417
-0.021424964
-0.007888347
-0.11367235
0.0514066
0.037246883
-0.04199987
-0.010004389
0.032205462
-0.07450265
0.030807987
-0.019333687
-0.07953168
0.054897685
-0.021188436
0.06628187
0.0849711
0.07848371
0.044540763
-0.009177456
0.093351275
-0.026719986
0.08680578
0.033839863
0.07931084
-0.015483603
0.028153794
-0.008495341
0.06265588
0.054687988
0.006557912
-0.049333245
0.07347293
0.016085949
0.110083535
-0.074867785
-0.030603746
-0.059340008
0.0675141
-0.055309363
-0.027040582
-0.045145426
-0.06283696
-0.03651063
0.066789754
-0.04789346
0.02353521
0.025128616
0.029223384
-0.052398082
0.04402645
-0.023783978
0.04440308
-0.06305208
0.0822355
-0.041925043
0.09068307
0.020357989
0.07747593
-0.011138809
-0.070912145
0.047999077
0.011003005
-0.038519632
0.084630325
-0.059076145
0.013964221
0.09069167
0.061726287
-0.048880026
-0.05602028
-0.07609829
0.022220537
-0.047460593
-0.087071784
0.031776655
-0.00067251106
-0.04509637
-0.011654301
0.036044907
0.025639534
-0.034663565
-0.047618683
-0.025250234
0.05324824
0.029777262
0.042336497
-0.07899755
0.037696276
0.08199879
0.080475405
0.05598311
-0.029754115
0.015504134
0.068011545
-0.05821139
0.011987415
0.058517218
0.029826133
-0.011176325
-0.06353039
-0.055086203
0.006371473
0.059224762
0.03651293
0.05320736
-0.0051972927
0.01777301
0.055601876
0.03467309
0.04179357
0.023304086
-0.07544108
-0.065912746
-0.02730366
0.05825722
-0.018706374
-0.10346927
0.013088481
-0.047959685
0.022930013
0.074692436
0.07938046
0.07799325
0.0054933564
-0.00040752668
0.06936397
0.058128078
0.04422018
0.04883998
-0.06947545
-0.06140392
-0.002908738
0.08581189
0.06622037
0.062171873
0.045577276
0.008765731
-0.06761897
0.031105848
-0.019802216
-0.05470434
0.0709698
-0.08474902
0.037202787
0.047899395
-0.036932547
0.06273615
0.082968704
0.017298821
-0.10281411
-0.0077450573
-0.0051364745
-0.031757828
-0.013395973
-0.049724955
0.026698168
0.09213933
-0.011266872
-0.054985255
0.05670915
-0.0093497
0.011235287
0.021521965
0.06614473
0.028612234
0.08613583
0.026822006
-0.037735686
0.0013233837
0.029698791
0.07274533
0.06170514
-0.035017546
-0.09174187
0.015522426
-0.08183553
0.072404355
0.01343065
0.07345891
0.008744941
0.037304915
0.053368576
0.048865717
-0.016129768
0.06371885
-0.052844588
0.04982793
0.022945624
-0.01804261
-0.05351823
-0.057249486
0.037554204
0.023899503
-0.07377007
-0.0319291
-0.06671594
0.011864353
-0.08796346
-0.078200065
0.05036477
0.05475672
0.034837812
0.056420263
0.062850684
0.076234385
0.032579843
-0.022183213
0.048401013
-0.016619194
-0.08070657
0.040595785
0.02161567
-0.045940228
-0.030099992
-0.08637095
0.05976293
-0.044601213
0.011843182
-0.031029714
0.018685412
-0.055324275
0.06808341
-0.05797443
-0.013329656
0.06354561
-0.046641696
-0.08545546
0.044194486
-0.0059156553
-0.08367318
0.009646372
-0.044107005
0.039417483
-0.07259874
0.007903039
-0.003736677
-0.015028299
0.054172046
-0.04728105
-0.060444355
-0.05938498
-0.08448643
-0.08491989
-0.06305477
-0.07160987
-0.07933275
0.03698364
-0.018988524
-0.07202855
0.0703553
-0.05988627
-0.07981701
-0.052457817
0.056317937
0.047018405
0.10412716
-0.05803876
-0.017258575
0.009335534
0.068744585
-0.055131745
0.008945316
0.015513373
-0.016555872
0.024522532
-0.07785093
-0.06145793
-0.069466814
0.029056622
0.009301598
0.032908507
0.06901915
-0.044242132
-0.07443074
-0.07062556
0.05764771
0.0077325497
0.030283181
-0.015116261
-0.019232042
-0.04446945
-0.05829227
-0.019498188
-0.06220619
0.021587467
0.04064988
0.03800028
0.01278445
-0.008185799
0.081708856
-0.045368146
0.10976168
-0.018471649
0.04689
-0.0038506375
0.0053146826
0.015137499
-0.08287211
-0.008140245
-0.058583178
0.009108443
-0.053168464
0.028869636
-0.025541328
0.0030200556
0.08513882
0.01604174
-0.043779846
-0.08410396
-0.088192455
0.09298709
0.008525573
-0.07994312
0.004787202
0.01628468
-0.021017266
0.055966984
-0.016238501
-0.07284416
-0.001071498
-0.08967881
-0.005467925
0.008789441
-0.00044325556
-0.05351576
0.05733835
0.017992934
-0.0548589
0.07077929
0.067971006
-0.013567303
-0.07924607
0.10417082
0.044305187
0.06718678
-0.038313802
-0.017619535
-0.03833949
0.015923614
0.05693319
-0.020373892
0.06520782
-0.012634335
-0.07273134
-0.029739736
0.030840559
-0.009545788
-0.010444912
-0.07239667
0.026587857
0.0042573377
-0.036793284
0.08193826
0.029232629
-0.06465729
0.053411335
0.056848463
-0.06112611
0.024584372
-0.07649388
0.08000215
0.06403835
0.04199648
0.013427778
-0.057073727
-0.07541227
-0.09084422
-0.054755818
0.0359815
0.014687537
0.041757114
-0.05104431
0.026475992
0.025027556
0.03633018
-0.030264776
-0.104254276
0.074171886
-0.017020967
0.03155829
0.051810518
0.0857636
-0.037119526
0.015793223
-0.020510402
0.011312389
0.015269293
0.015878048
-0.06964355
0.002858898
-0.055258863
0.059436202
-0.031053334
0.014898982
0.0778159
-0.050655145
0.040993772
0.020674516
0.06591023
0.0647819
-0.05909368
0.04841122
0.0060216114
-0.047909882
0.0489278
0.07142737
0.008708907
-0.000484056
-0.0018936828
0.02557237
-0.058412615
0.058533385
0.03639948
0.08403363
-0.06997976
0.056882832
0.036179606
0.07951194
0.03019225
-0.074895374
0.009372062
0.00044111567
-0.076135345
-0.010637492
-0.03707956
-0.032293484
-0.05863753
0.027235594
0.053030524
-0.012508475
-0.046154596
0.05479248
0.06792971
0.06658299
0.07602398
-0.019171853
-0.07847499
0.080815814
-0.015879612
-0.02932749
0.05291046
-0.09727232
0.025126953
-0.0624899
0.06642511
-0.032637563
-0.06254701
0.0750753
-0.04083228
0.067312375
0.014084187
0.028923873
-0.010368293
0.056860007
0.05001612
-0.009232711
0.02682666
0.061782274
-0.009223205
0.026757596
-0.018672395
0.026187262
0.07533588
0.07312925
-0.07703627
0.034914188
-0.06235823
0.02717429
0.08151785
0.028563792
-0.040158458
-0.046275083
0.037276845
0.020101998
-0.03472105
-0.048414703
0.09569979
-0.033682607
-0.053137105
0.03890032
0.08459957
0.100324064
-0.00034897478
-0.0023354865
-0.01562423
0.05994163
-0.028779244
-0.032642253
0.07494765
0.050406374
-0.07763662
-0.039973818
0.11955849
0.08970535
-0.054084964
0.05102169
-0.1081809
-0.07216798
0.01506176
-0.055210695
-0.0500383
-0.004197458
-0.0684902
-0.07489684
-0.044279143
-0.014140343
0.049285877
-0.040536214
0.045796305
0.075136565
-0.021701789
0.08988034
0.061538216
-0.032489277
0.013900427
0.061643574
-0.04009721
0.018695146
-0.061110925
0.04086197
-0.04550652
0.069609344
-0.025971202
-0.029673578
0.015806006
-0.0123443045
0.04790796
-0.052252147
0.03157014
0.040163618
0.014165712
-0.012133422
-0.072307065
-0.06303114
0.09025927
-0.034049198
0.09446228
-0.058052614
0.034941763
0.06767364
0.075911306
0.08341132
-0.09183193
9.1574606e-05
-0.053138964
-0.015566594
-0.012427204
-0.04859386
-0.04017447
0.03782889
-0.0026231133
-0.038004063
-0.02796114
-0.019378021
-0.026711825
0.006262842
0.037639126
0.090934426
0.015374785
-0.05557556
-0.033599257
0.036481418
0.033069313
-0.009183461
-0.08360452
0.055464126
0.0074134916
0.05507548
-0.06005392
-0.004772225
-0.032664973
-0.014444922
0.07484705
-0.039913714
-0.06411491
0.0663936
0.044357337
0.03170014
0.04444554
-0.06912545
-0.016889103
0.019582162
-0.052090626
0.023036888
0.09249668
-0.007435346
-0.07944122
0.02047489
-0.07365377
0.09592211
-0.03960449
-0.06209415
-0.0494305
0.07801142
0.0798006
0.019284988
-0.05042044
-0.1290611
0.11134919
-0.006269834
-0.03413985
0.056612894
-0.020254489
-0.111028664
0.040124994
0.042105094
0.03521742
-0.046663795
-0.07226062
-0.01500864
0.071637146
-0.025868194
-0.0029535226
-0.020106468
0.06934056
0.052068338
0.00034058356
-0.06060559
0.06450518
0.10296501
0.065936506
-0.07455138
0.101774074
0.052777916
-0.009400068
0.058916815
-0.024868537
-0.032475475
0.08805668
0.012901109
-0.053495746
-0.023052257
0.059946656
0.099577405
0.044116188
0.09603617
0.06437559
0.020352729
0.01908896
-0.022288712
-0.06730061
-0.054867614
0.090235
0.016228508
-0.05228892
-0.06216772
-0.08569035
0.07383235
-0.030046884
0.040278416
-0.05959132
-0.065630585
-0.07604603
0.017300084
0.057293825
0.0027351687
-0.06315568
0.083651364
0.006883085
-0.027631434
0.024287125
0.0068400977
-0.06786726
-0.08279252
-0.08075141
-0.071261056
0.049382832
0.05555107
-0.013488952
0.039628502
-0.007957887
0.08353123
-0.08450343
0.049047917
0.032096956
-0.037802644
0.05539554
-0.02969773
0.03555514
0.023306722
0.010627033
0.045041353
-0.07967481
0.0029256917
0.07376422
-0.067932025
0.02178045
-0.060166754
-0.05242134
0.016618794
-0.04268826
-0.0152253155
-0.049146194
0.020209009
0.04858026
-0.044536315
-0.057140004
0.035958726
-0.015141435
0.0719616
0.08934643
-0.032508545
0.043226372
-0.030601578
0.072883815
-0.04253676
-0.059288815
0.0028667941
0.050972406
0.0075950045
0.014273783
-0.061463743
-0.06169974
-0.022393644
-0.0498273
0.060724583
-0.0600645
-0.056210734
0.021983055
0.05864553
0.07021419
-0.0649339
0.020666055
0.08341405
0.001296408
-0.09620134
-0.05682094
0.071352035
0.073598005
0.06637767
-0.05787364
-0.04405929
-0.007590716
0.06831233
0.059189618
0.052698757
-0.0024146365
0.03990184
-0.009567784
-0.018146764
-0.02161608
-0.040384874
-0.01819111
-0.02813633
0.06472265
0.023351928
-0.07733491
0.0023386707
0.026195237
-0.087050356
0.030986361
-0.082066044
-0.00704351
-0.06749548
-0.08093511
-0.02104585
0.022994347
-0.01896492
0.04888518
-0.057310253
0.04591634
0.021218872
0.0168946
0.008483207
-0.014320848
-0.044688474
-0.053662762
-0.04845527
-0.06759354
0.0031551563
0.07704544
0.0361086
0.066366285
0.047624566
-0.015025566
-0.032796994
-0.025461962
-0.027825065
0.020771913
-0.01897967
0.07678505
0.014634916
0.042610295
0.060826626
0.014051129
-0.0338173
-0.02627981
0.08666756
-0.0715233
0.031134024
-0.0031354006
-0.052356157
0.066792384
-0.029252904
0.037879117
0.0387223
0.1311853
-0.06640664
-0.0398567
0.057602588
0.075558044
-0.029421512
-0.10410973
-0.051173013
-0.034827583
0.026695047
0.025860202
0.08368251
0.06800318
-0.04791447
0.09113979
-0.001071669
-0.021440523
0.040716477
0.03172326
-0.05423744
-0.034773335
0.010279328
0.036584888
-0.005938042
0.029344985
0.033374462
0.017313203
0.064627565
-0.06380669
0.06994515
0.05550643
-0.053692013
-0.059219662
0.005018929
0.03805561
-0.030890683
0.032753807
-0.030303879
-0.040539835
-0.007593831
0.08526264
-0.100646146
-0.052456263
0.030221075
0.013800502
-0.024158223
-0.07910178
0.076163046
0.014308363
0.05898324
-0.09358482
-0.041037526
0.032805804
-0.0012646478
0.04322278
0.10725465
-0.008484424
-0.07871551
0.02238677
0.050487526
0.057605557
-0.063260384
-0.07351211
0.01843676
0.02676097
0.050475318
-0.03903959
-0.086243905
-0.022855455
0.084921114
-0.016315246
0.044458747
-0.0650256
0.02217216
0.07587546
-0.0009641268
-0.050718524
-0.04263209
-0.08801599
0.09467122
0.049647048
-0.076971516
0.07480586
0.012298707
0.03745983
0.015019848
0.043779608
-0.034046575
0.011561571
0.061966192
0.07816412
-0.016766664
0.03858682
-0.048497926
-0.04867516
-0.013074815
0.004650765
0.013395265
-0.0393344
0.039901853
-0.061336424
0.03941816
0.012537218
0.024424542
0.034939196
0.080315664
0.0664331
0.048754033
0.03135285
-0.02837783
0.0020794617
-0.106222786
-0.044579685
-0.057352148
0.0072082826
-0.010617944
-0.03748129
-0.0048755403
0.048189405
-0.06023733
0.0014311913
0.077549554
-0.041413598
0.090286754
0.02309968
-0.053802088
0.035251662
-0.029458055
0.032105956
0.036837094
-0.04426803
0.08040243
0.047505297
0.07043889
0.012718807
0.04888854
-0.065471604
-0.00873569
-0.047493566
0.047489215
0.051656798
0.03331837
-0.06577398
0.07608838
-0.071102776
-0.045884572
-0.08595363
0.0014400808
-0.072461486
-0.049525764
0.06312027
0.025180424
0.025011338
0.07137374
0.01420042
0.09888204
-0.019763993
-0.008801792
0.034935504
-0.014159412
-0.062198453
0.026896711
-0.057921022
-0.09908128
0.016959874
-0.09250512
0.012262016
-0.046568185
0.050993588
0.07008914
-0.06886316
-0.025243858
-0.013754701
0.04204191
0.015878975
-0.031472836
-0.07287868
-0.061453287
-0.09255862
-0.032242473
-0.048770312
-0.02534436
-0.0905564
-0.0023364087
-0.081610985
-0.041661356
-0.04990397
0.023251228
0.013305439
0.06411552
0.060648933
-0.027508384
0.037727043
0.008215752
0.090494305
-0.07413226
-0.0053754733
0.068773545
-0.011935397
0.07656064
0.058446296
-0.05567924
0.041675653
0.042974222
-0.060439095
-0.014747354
-0.010628239
-0.080484465
0.013261371
-0.029263068
-0.057243984
-0.024693899
0.05535449
0.0056832363
0.070980825
-0.05245498
-0.008880236
0.0025231824
-0.071606345
0.03781093
-0.05274542
-0.028655464
-0.063386396
0.07407751
-0.029608136
0.077539966
-0.0750025
-0.059918515
-0.016688086
0.027855767
0.10981778
-0.042685702
-0.011657668
0.010850309
0.034488436
0.022308491
-0.014733865
-0.022187429
0.0039595063
-0.024506785
-0.080663554
-0.018044263
0.0679364
0.017186351
0.057398077
0.057402737
-0.07259983
0.016617376
0.07630089
0.011961055
-0.019485675
-0.06162759
-0.039185323
0.038241733
0.023095582
0.032463633
-0.0360221
-0.07059808
0.11021322
0.105813555
-0.011557993
-0.0090446705
0.0034146684
0.078800805
0.038461618
-0.021218296
-0.042706013
0.056970384
-0.070155025
-0.025888082
0.072874926
0.046402965
0.0041728546
-0.06864913
-0.014822022
0.06108213
-0.04005573
0.01521843
-0.024529317
-0.08532055
0.061509028
-0.010224182
0.07135763
-0.035505194
0.056813773
-0.035085868
0.07154318
-0.001908475
-0.05479036
0.0065712957
0.07213219
0.04408263
-0.06091254
0.03524999
-0.021729462
-0.050505005
0.052745435
0.046496946
-0.054031786
0.07120298
0.033259854
0.06776932
-0.09047812
-0.03856861
-0.046346888
0.046108168
-0.058805417
0.07581998
-0.06904667
0.042668175
0.071600325
-0.059759438
0.06611501
0.041245297
-0.03128707
-0.05557081
-0.07573487
0.09133134
-0.04759066
-0.017835438
-0.049908787
-0.01548831
-0.06351165
-0.00024681617
-0.05717787
0.030674411
-0.0644505
0.03574584
-0.059506755
0.060675405
-0.0047143865
-0.014827781
0.044661768
-0.046094336
0.008500853
-0.08638092
-0.04927468
-0.01473395
-0.061696496
-0.025197616
0.048466925
-0.036244705
-0.010681447
0.056920487
-0.020333642
-0.03425835
0.032923594
0.10627559
-0.07396673
-0.033287358
-0.09048295
0.037275128
0.03815767
-0.027163357
-0.08017942
-0.009999115
0.03697851
0.0017361449
0.033515822
0.055487894
0.03823606
-0.019342955
-0.035345204
0.072475314
-0.025226738
0.01520561
-0.0047783353
0.057146076
0.06734982
-0.013699032
-0.03089059
0.028005686
0.07232419
-0.04499524
-0.028687723
-0.054508716
-0.00093404617
-0.02776268
-0.074202254
-0.05388318
-0.0014678648
-0.04076934
-0.07478686
-0.056069136
-0.06980491
0.07760084
0.014712287
-0.028094007
-0.005881389
0.05907989
0.027511513
-0.002755173
-0.0051830173
0.08010103
0.06596088
0.064924754
-0.06904869
-0.03548685
0.058277562
-0.025191253
-0.030912125
-0.06309964
-0.067209125
-0.0028009065
-0.06164683
0.03204786
0.030213833
-0.0033363763
-0.06909964
-0.07160146
0.009524965
0.024832798
-0.0015029365
0.033793185
-0.071359694
-0.0056964974
-0.059801117
0.036940917
-0.08231981
-0.030819679
-0.07798443
0.08509026
-0.06780461
0.01853382
-0.06560984
-0.072749116
0.08061425
-0.05005462
0.06556272
-0.040551655
0.0005787984
-0.012367291
0.08135552
-0.07378058
-0.08019427
0.025420131
-0.0376013
0.06437291
0.021661289
0.0095514245
0.100522585
0.00065058767
0.0760967
0.045234524
-0.003935257
-0.052264217
0.02655384
-0.033093434
-0.05998072
0.022739574
-0.029188491
0.032934062
-0.095453665
-0.044368178
-0.033957887
-0.047476996
-0.013020933
0.070639916
0.0015741165
0.07630756
-0.07758802
0.014336921
0.060063817
-0.005747297
0.0082675675
0.028927723
-0.030187821
0.048359476
-0.037485022
-0.07772541
-0.048375584
0.07348645
0.09424214
-0.06572874
0.0019940846
0.08614285
-0.047362283
-0.024318075
-0.0370598
-0.021874331
0.015469924
-0.033955842
0.043140292
0.02910969
-0.051948078
0.042018067
-0.013095797
0.0004970588
0.0351294
0.062507346
-0.0020365415
0.03486493
0.027103031
0.026771145
-0.018341804
0.04095682
-0.041624658
0.06951336
0.06518237
-0.008865122
0.019972457
-0.064634666
-0.07167358
0.078836784
-0.076923005
0.009212462
0.041464295
-0.037808217
-0.011832099
0.06113879
-0.019903805
0.047651093
0.0008764624
-0.04827385
0.011564177
0.03855053
0.03991232
-0.035001654
0.045714036
0.026528006
0.022895765
0.06695208
0.05357431
-0.03216514
-0.05862787
-0.08274547
-0.08620425
-0.06290255
-0.06316044
0.032574862
0.055779535
0.07496316
0.010518583
0.029262634
-0.053624574
-0.0009629166
0.058528386
-0.05524119
0.006459327
-0.014937678
0.010445592
0.08370621
0.06910096
-0.0055517573
0.030531928
-0.05402044
0.030050566
-0.009160126
-0.06710359
0.017288603
0.036181528
-0.0011443207
0.053499766
0.0053043435
-0.020021379
0.07534258
-0.055287506
0.058949396
0.079453476
-0.037366398
-0.07478839
-0.045619916
-0.0038068844
0.00067569123
0.013723454
-0.009849868
-0.027277917
0.020839602
0.091702946
-0.003305333
-0.014624299
-0.0024974728
0.011854739
-0.050105408
0.032620758
0.022071615
0.011732049
-0.027419677
-0.00712098
-0.0015196579
0.020344779
0.027692262
0.06496482
0.06209496
-0.048524644
-0.04525757
0.015684746
-0.039937176
0.014164124
0.02387293
0.046398126
-0.094287
-0.04016659
-0.053109918
0.07466938
-0.0731375
-0.03345518
-0.07170049
-0.011954396
-0.07783913
-0.04669848
0.09399323
-0.073829845
0.02304233
-0.078037426
-0.017674744
0.014128112
0.013145555
-0.088661596
0.082944684
0.0077409497
0.059558585
0.005129766
-0.07894975
0.040268395
-0.024157437
0.042515367
-0.062255472
-0.043907683
-0.008416754
0.055734064
-0.042553093
0.04252738
-0.04913506
-0.010871571
0.06858441
-0.0018038227
0.090919554
-0.05228142
0.074694276
0.06285747
-0.06612802
-0.06386425
-0.04129305
-0.042749103
-0.008082357
0.023905072
0.013216799
0.07948683
0.015023714
-0.0680587
-0.08292023
0.021638358
-0.06448561
0.02443347
-0.02674806
-0.021967622
-0.059048027
-0.0103688305
0.059808258
-0.013027968
0.006042553
0.04659922
-0.0011128333
0.09573625
-0.056846797
0.026834058
0.066302404
-0.055843063
0.014811835
0.07909453
0.014347774
0.0626445
0.010438242
-0.007416971
0.020174721
-0.030845085
0.083700515
0.05812642
0.054646913
0.08784691
-0.049957085
-0.005476091
0.020201292
0.012233803
-0.051238574
0.039405175
0.087328225
0.061091043
0.06640248
0.038599197
-0.05253883
0.09158353
0.101502635
0.06928362
-0.036531948
0.06402469
0.06590293
-0.06225229
0.08568342
-0.055121277
-0.0724041
-0.036486674
-0.038659602
-0.08880687
-0.014357452
0.04990236
0.014964715
-0.026439235
-0.067353085
-0.0792767
0.0234043
-0.07553464
0.10562447
-0.077067874
0.053295042
0.09313357
-0.05301393
-0.03754197
-0.08078375
-0.06591164
0.041523047
0.04292684
0.057821278
0.039405204
0.07993599
0.08259327
0.03150339
0.035842586
-0.027726937
0.035684574
0.048611727
0.09316476
-0.0772803
-0.037840873
-0.07543553
0.07868868
-0.011512897
0.09261365
-0.05727282
0.0026088047
0.043315146
-0.0071873465
0.014479256
-0.039001714
0.08591475
0.054613184
-0.039101437
-0.010589291
-0.025375247
0.020004261
0.05998442
-0.012796572
-0.055508908
0.0592331
-0.073666334
-0.030111972
0.057615083
-0.0581468
-0.07227328
-0.05307107
-0.0042145676
-0.028518768
-0.075745955
0.00962278
-0.07004729
-0.04661268
-0.050730113
-0.010894395
-0.01681404
0.020621052
-0.03336368
0.014054831
-0.02791072
0.04371429
0.0052841534
0.03708146
-0.08641552
-0.055378456
0.0017970626
0.017882442
-0.0146813905
-0.027476609
-0.043350115
-0.06586016
0.08512526
-0.012527588
-0.0023622569
-0.02255907
-0.0016615557
-0.038024537
0.00089744467
0.029298259
-0.037056874
-0.008342774
0.024405885
-0.028295869
0.032608587
-0.022085596
-0.012812903
-0.059123665
-0.07050982
-0.041897945
-0.005061991
0.01220405
0.043238066
0.03346754
0.033877872
0.046472
-0.0535896
0.030926922
-0.023728102
0.009629843
0.044762537
0.012807456
-0.026660286
-0.0013633019
-0.047098584
0.08128115
-0.005575311
-0.06662979
0.015379831
-0.047269195
-0.008665214
0.025613854
0.018657422
0.08025614
0.009953872
-0.06549766
-0.0025719388
-0.017134137
0.042023458
-0.068205826
-0.07165096
-0.014517806
0.03571554
0.052795906
-0.07546627
0.05011204
-0.06891619
0.07248129
-0.062127933
0.016033627
-0.022675067
-0.019964324
0.01763721
-0.0061463546
-0.01123935
0.05445068
0.0003493095
-0.047857214
-0.049942434
-0.013662783
-0.079896525
-0.07206057
-0.0022124539
0.015776217
0.07364549
-0.00677688
0.049674723
-0.046462
0.044803984
-0.009605866
0.060603175
-0.07844884
0.038612273
-0.016853167
0.07996429
0.019372962
-0.028731242
0.05545131
-0.0017061904
0.0068052434
-0.035634566
0.045438606
0.058349118
-0.060218282
-0.028011823
0.05577249
-0.0054460014
0.05649446
0.033854168
-0.0005910382
-0.10620579
-0.030782895
0.03169129
0.079450294
-0.061137863
0.04488937
-0.0857468
0.016665477
0.09949139
-0.04113723
0.0017493101
-0.029893646
0.03412527
-0.07467267
-0.010969791
0.07145477
-0.057218224
0.05428737
-0.060331214
-0.015130698
-0.05588042
-0.025245551
-0.048140332
0.013708022
-0.055852257
-0.04634929
-0.03138536
0.037694663
0.06717781
-0.048552755
-0.038644064
-0.06239751
0.015933925
-0.041880812
-0.0010464595
-0.03816424
0.0072286744
-0.0075339773
-0.023629494
0.033384264
0.046371136
0.06681612
0.024952503
-0.020334803
-0.07608738
-0.023997756
0.042261377
-0.04851776
-0.010939859
-0.013250354
0.037792686
0.05815335
-0.040733777
-0.0286889
-0.06832762
-0.07296611
0.08158735
0.058168873
0.07554572
-0.0615947
-0.08402524
0.047070537
-0.053116344
0.047602046
-0.045793686
0.08522598
0.061738487
0.022424059
-0.015565693
-0.06523471
0.026549473
0.062973514
-0.07224571
-0.0036294397
0.0062828097
0.00931386
0.080463655
-0.07517497
-0.042738963
-0.0033884866
-0.07312333
0.028385732
0.0130982
-0.023485294
0.06870166
-0.04726237
-0.07445633
-0.014685926
0.0027439366
0.09858473
0.022203064
-0.0558158
0.06833883
-0.070651166
0.05114135
0.07520936
-0.060568135
0.11252819
0.05572522
0.056213524
-0.014130398
0.09284641
-0.06779559
-0.07854254
0.011289356
0.10170904
0.045286976
-0.02015745
0.06655994
-0.060900066
-0.033302266
-0.0033736085
0.012212511
-0.046592228
-0.07098016
0.0685618
0.042549543
0.031238997
-0.02772703
0.042662647
0.101347715
0.021829577
-0.05207088
0.014300916
-0.075832285
-0.025871195
0.0435121
0.09458486
-0.079943076
0.0058428203
-0.03029664
-0.042196497
0.009642318
0.028834546
-0.028290097
-0.03218806
0.09930361
0.046174496
0.037725918
0.05463662
-0.009221192
-0.034946293
-0.05033374
-0.042060297
0.0018742669
-0.009546907
-0.03425957
0.021021388
-0.0020078088
0.07086235
0.03282705
-0.024065081
-0.05523379
0.023357162
0.017152356
0.009061638
0.019513506
0.020735964
-0.05858299
0.07226729
0.05543955
0.08028444
-0.06067611
-0.07531393
0.014553781
0.03236157
-0.06721868
-0.03703047
-0.08554919
-0.0011035239
-0.0044885115
0.068273656
-0.08983927
-0.031779077
0.035220902
0.01633206
0.022084145
0.043000154
0.056539636
-0.022190234
-0.041792344
0.047015797
0.07638451
-0.0414548
-0.054946877
0.036043826
0.0062327813
-0.034409128
0.019817635
0.06239343
-0.0034299016
0.07480596
-0.088152885
-0.05537584
0.030356867
0.03588487
-0.077298984
-0.03422019
-0.066412404
0.071097136
-0.007332913
0.08672289
0.03203608
-0.061653323
-0.051792953
0.022789234
-0.057703726
-0.030880166
-0.03840904
0.02988288
-0.0727751
-0.016268924
0.03397434
0.01821337
0.024436539
0.0313546
0.074208416
0.017268421
-0.021821987
-0.024335189
0.038983777
0.037184477
-0.0011799533
0.0050833346
0.006174601
0.051551636
0.0925905
0.0050538457
-0.054885402
-0.10809922
0.0015459667
0.044839352
-0.0047775297
-0.04503939
-0.055012673
0.08753283
-0.029715162
0.0012089509
0.109175704
0.013695444
-0.048936106
-0.056489494
0.06536976
0.083597824
0.004287348
-0.034319744
0.020450566
0.030976979
0.0050851805
-0.040096175
0.015798891
0.0027507416
0.023462141
0.01144135
0.026936099
-0.00862239
0.055018794
-0.012986467
0.078974515
0.011116764
0.037696216
-0.04790181
-0.033347942
-0.096312925
-0.048231795
-0.06476031
-0.0067991195
-0.065877706
-0.02228932
-0.07097031
0.0919442
5.8410234e-05
0.055725012
0.07657992
0.07688397
-0.026755713
0.085190035
0.036504533
0.025069924
0.0013202913
-0.025774367
0.037409414
0.07786262
0.046604156
0.025420593
-0.053119473
0.007138329
0.022879038
-0.06553924
0.08396016
0.053530715
0.06305654
0.055069532
-0.015669147
-0.055106185
-0.001913103
-0.054479245
0.08916627
-0.07945739
0.063024715
-0.08779809
0.009594359
0.027934132
0.045057647
0.01906943
-0.023595493
0.006839691
0.07123409
0.02994654
0.07267529
-0.051530648
-0.022390557
-0.0148071
-0.077673
-0.09815457
-0.016427547
-0.044482697
0.03515863
0.0122817615
-0.021399148
-0.03308741
0.07622323
0.017496737
0.042117473
-0.059371646
-0.054189827
-0.07552224
-0.047120497
0.076836355
-0.037358195
0.1089276
-0.032877125
0.084029146
-0.072459795
0.048848096
0.02404443
0.029980797
0.050361987
0.02698794
-0.08116741
0.06624263
-0.07227934
-0.029963788
-0.037408717
0.00874551
0.051359225
0.00654318
-0.004952562
-0.019784598
-0.075476006
0.045311037
-0.03687211
0.119589515
0.11640226
-0.05976488
0.038464673
-0.0012582284
0.041951407
-0.054234143
-0.06044747
-0.05945648
-0.03620882
0.004352886
-0.03855828
0.046751052
-0.004922095
-0.030360388
-0.0016462089
-0.052720156
-0.032181233
-0.032493144
0.052640423
-0.00601706
0.033874463
0.09031817
-0.01028164
-0.017335517
-0.0030004822
0.025232242
-0.02949377
0.02282543
0.11080681
0.031075079
0.10111064
0.08283782
0.07927186
-0.06720423
0.05269698
-0.031760044
0.08361538
-0.013559707
-0.014235359
-0.015529551
-0.023301004
0.039900307
0.030097103
0.03098559
0.02571792
-0.028235296
-0.0054097627
0.035748325
-0.04196131
-0.060361106
0.0017198937
0.07506508
-0.037505813
-0.0348967
0.06835355
0.008625944
0.004729971
-0.035437915
0.020791113
0.025987621
0.07273922
0.00924868
0.080428086
0.119368844
0.094418064
-0.07353229
-0.0074438844
0.021463005
0.072545536
0.017646305
-0.035193358
0.07482205
-0.0016273707
0.0948692
-0.017865743
-0.021159938
0.019307476
-0.061739836
-0.009649886
0.056169275
0.06563588
0.022287846
-0.069398634
0.09452075
0.07385142
0.02058497
-0.070583
-0.031577267
0.007490321
-0.051109415
0.081039004
0.07129343
-0.084488675
0.018151635
0.026026025
-0.06903212
0.06713148
0.05757238
0.006533909
0.008386243
-0.050322317
-0.037677232
0.035218265
-0.017375592
-0.012966094
-0.06439351
0.01968307
-0.074673936
-0.01203366
0.053590782
0.015360498
-0.02753168
0.025461901
0.058610264
-0.06596329
-0.004711077
0.021274637
-0.0020628902
0.0762979
0.03789188
0.043992314
-0.02113661
0.04512365
0.03248844
-0.032139953
-0.029125137
0.03310301
0.004110997
0.006426769
-0.016144702
0.07951423
-0.05732346
-0.031166734
-0.05613181
-0.0060724937
-0.006474985
-0.07758661
0.07527809
-0.026002504
0.06218688
-0.07108879
-0.057915073
0.051615506
-0.015774643
-0.03959005
0.07747517
0.054478277
-0.017454296
-0.054024454
-0.082044415
-0.0354884
0.06763502
0.038028892
0.030997308
-0.11151331
0.038910195
-0.056217536
-0.0049173306
0.057700884
0.029333005
0.05238065
-0.020456087
-0.07290865
0.037113603
0.007326026
-0.11555079
0.10029343
0.042331573
0.112967126
0.08249411
-0.02082465
-0.032587525
0.05691786
0.028496416
-0.004008447
-0.05896563
-0.08482317
-0.020323351
-0.0016091748
-0.026397899
0.06263426
0.07709301
-0.013137116
-0.12497645
-0.024487333
0.055159148
0.08708543
0.018172555
0.06964679
0.022487758
0.046910137
-0.014353434
0.038878575
0.014745464
0.087096594
0.056646295
0.05070044
0.0042538457
0.028757866
-0.024338467
-0.07951946
-0.03523752
0.0708315
0.0019775024
0.024535751
-0.0012401335
-0.00040100532
-0.0005147253
-0.00019232738
-0.08403711
-0.0714629
0.049378365
-0.044189878
-0.036977675
-0.030495333
-0.021282356
-0.013452273
-0.061392896
-0.005958012
-0.018827636
0.017481048
-0.03934781
-0.023186725
0.03471082
-0.048499595
0.05817806
0.001199191
-0.08437874
-0.06692634
-0.050464544
-0.087886564
0.01114489
-0.045813438
-0.085746706
-0.024368111
0.04162311
0.00074815255
0.014154637
0.05452875
-0.066389844
-0.018044597
-0.022272391
-0.030415302
0.072228394
0.09936177
-0.039654158
-0.04637375
0.08656068
-0.06789895
0.05039447
0.049301367
0.023937436
0.05449898
-0.05366467
0.035589587
0.063888036
0.010399225
0.06625709
0.00926074
-0.024139876
0.009131314
0.053340945
0.10564948
0.008977865
0.00018762132
-0.027044749
-0.07331612
0.017274695
-0.030545201
0.06227699
0.061008826
0.0032890746
-0.040762737
-0.028368974
-0.049869895
0.03994564
-0.037193667
0.0017466735
-0.057084404
-0.009537013
0.037019137
-0.066693105
0.04528356
0.023632199
0.043915763
-0.00032939517
-0.016335456
0.06461484
0.060609903
0.042695228
-0.053989053
-0.04767265
-0.0063479054
-0.013417059
-0.082092546
-0.02899942
-0.052724846
0.035943218
-0.06840903
-0.018997774
-0.088405624
0.073702514
0.0041352008
-0.07347812
0.0596627
0.024644705
0.020172242
0.010328158
-0.074565895
0.041430224
-0.0062920516
0.028251555
0.058228243
-0.06448639
-0.007428574
-0.04756838
-0.0253387
0.008992088
-0.07418217
0.004112521
0.09075417
0.062628604
-0.050512277
-0.0071486025
0.049213033
-0.059994932
0.059353676
0.06824443
0.018580185
0.020256806
0.01822672
0.07030552
-0.05876953
0.062235974
0.03479744
0.06038896
-0.058699753
0.072253644
-0.065404445
0.0030083114
0.054501154
0.033238705
0.016199823
-0.0056410343
0.071669385
0.043612104
-0.039582025
-0.003337
0.084271476
-0.011434404
0.023836266
0.04849312
-0.056387693
-0.07233143
0.036720276
0.045128863
0.014341992
0.017956536
-0.01717523
-0.0052750176
-0.034644585
-0.03259306
-0.027320355
0.061868686
-0.07560035
0.056547385
0.00012222904
0.063817546
-0.089054145
-0.014517382
-0.029997898
-0.022874536
-0.06409434
0.03489974
-0.023343105
0.067400604
0.048925865
0.06361006
-0.00048000328
-0.06934463
-0.11793665
0.05138464
-0.03044359
-0.021546274
0.0015665158
0.0168251
-0.06311493
-0.042993374
0.05670473
0.01805238
-0.036811184
0.04646913
-0.021958241
0.03542248
0.061534714
-0.057854082
0.023894535
-0.091412835
-0.04891832
-0.04792402
0.057954893
0.052381203
-0.032856997
0.0620541
-0.049810734
-0.050831627
0.07967467
0.021207938
0.06818511
0.08211362
0.05759664
0.05575992
0.00822591
0.0034583877
-0.051700033
0.036676712
0.0056225928
-0.06535615
-0.06626548
0.06806696
-0.082739815
-0.0067471443
0.038420398
-0.06434133
-0.082322575
0.080253445
-0.06996853
0.053107847
0.061313715
-0.009151371
0.06661437
0.04161112
0.016876552
-0.06560325
0.052526124
0.025625383
-0.032364033
-0.00875874
-0.083463326
-0.04030844
-0.031643987
0.07269746
-0.039870117
-0.06261934
-0.048534065
0.041158643
-0.010864916
-0.07929021
0.018811177
0.010908487
0.06549155
-0.021618547
-0.07045252
0.03663634
0.048730467
-0.04243224
0.08054576
0.05333025
0.018449817
0.041485835
-0.035643775
-0.07117969
-0.06078038
0.0854138
0.018981257
0.037722822
0.07228679
-0.09127535
0.081286125
0.010286257
0.021482555
0.08642249
-0.07288442
0.08264803
-0.03638035
-0.007444947
0.02252985
-0.053624984
0.04272909
-0.02681393
-0.01688437
0.10453197
-0.047882408
0.013993663
-0.06329534
-0.028727397
0.0093154665
0.04296172
0.060615025
0.062315084
0.04506209
0.0059799054
-0.10891641
0.011279181
0.10345597
0.09957409
0.00015204199
0.07762474
-0.028903104
-0.038238354
0.05306819
0.006218117
0.014735014
0.036235604
-0.05499566
0.047420114
-0.052674502
-0.028379861
0.029311089
-0.068150334
0.02142268
-0.024876742
-0.028304107
0.062794074
0.054003257
0.08059071
-0.06366579
-0.02470006
-0.07754104
-0.049225174
-0.04303169
0.093567595
-0.05781778
-0.027839685
-0.07187144
-0.020254767
0.07974363
-0.06503837
-0.0743492
0.09741615
0.10081407
0.088267885
-0.033130135
0.01764858
-0.052299414
-0.07351453
-0.04987286
0.0031910609
-0.059501268
0.0104115335
0.037663255
0.09791422
-0.02612753
-0.01668927
-0.0539273
0.010630867
-0.05190461
-0.049845666
0.02025436
-0.0072852545
0.027405554
-0.069200754
-0.04020509
0.063128166
-0.02224962
-0.02411956
0.013275797
-0.0048364634
-0.054966874
-0.010563412
0.013242222
-0.07535674
0.045398943
0.08310257
0.0654053
-0.06804206
-0.019390075
0.08743577
0.09949782
-0.0031592639
-0.036403008
-0.09477242
0.028772984
0.0056886547
0.03406264
0.030680854
0.038987156
0.045782644
0.040341143
0.034356378
-0.0538848
-0.020175885
0.057568938
0.031022554
-0.052634962
0.032924213
0.074485466
0.019728918
-0.022604039
-0.06492134
-0.005720514
-0.015967244
0.069160685
0.10585366
-0.035350475
0.019650247
0.06633392
-0.0011292696
-0.09441281
0.07842291
0.04973247
0.019262832
0.040405568
0.032634385
0.028191814
-0.002748632
0.032038726
-0.015990024
0.085110664
-0.069940135
0.018553587
-0.03593075
-0.040575862
0.040535875
0.10372719
-0.050326675
0.08297143
-0.038107816
0.011196421
-0.030191729
-0.017502133
0.013872865
0.01762175
0.030086963
0.035924803
0.0535802
-0.063300855
0.029526565
0.0144317625
0.034656275
-0.019687837
-0.092411004
-0.037087124
-0.10352404
0.07424957
0.071503
0.07075561
0.100783385
-0.06506015
-0.056795496
0.062381968
-0.0022865713
0.03431864
-0.051533923
0.05830956
0.04497098
0.071841784
-0.025623765
0.02485235
0.0036491966
0.07193135
0.0478642
-0.04881066
-0.09276642
-0.005560962
0.08515295
0.010182444
-0.07273525
-0.057349782
-0.007365153
-0.05337563
0.07806144
0.049812008
-0.030517112
-0.043147467
-0.05502314
0.054578524
-0.013073578
-0.03916556
-0.062616184
0.041154925
0.06966194
-0.042227287
-0.07409474
-0.06876464
-0.019457223
0.0440928
-0.020939117
-0.058952283
0.040855095
0.017636752
-0.08135816
-0.03282962
-0.01575207
-0.057555184
0.035643015
0.0009394964
0.0006609365
-0.041881025
0.0063599907
-0.0050647613
-0.01431267
-0.014853101
-0.09159315
-0.09336116
0.0012473802
-0.032261267
-0.02290012
0.0050564203
0.0414627
0.043770734
0.026654495
-0.08352717
0.028526574
0.054490134
-0.03961648
0.012543899
-0.004057222
-0.0021689925
-0.011153492
-0.02139372
0.028022332
0.0017824967
-0.04899602
0.07410805
0.07589515
-0.02332975
0.038754683
0.080506496
0.007503598
0.019403255
-0.028636927
-0.07735926
0.028665105
0.036269516
-0.06232586
-0.00438176
0.00023823128
0.06753535
-0.0073958165
-0.017127793
0.0735014
-0.025711823
0.042273056
-0.020457959
0.023119235
0.091915734
0.0752435
0.085442774
0.022870893
0.05562408
0.05426714
0.031706978
0.034164574
-0.015897917
0.037135005
-0.025466878
0.020179203
0.06003633
-0.03131725
-0.03749903
-0.08367352
0.02738584
0.067464314
0.015424538
0.08401088
0.08430284
-0.017800326
-0.013922438
0.06528043
0.013926536
-0.019459981
-0.020229934
-0.039205287
0.068732046
-0.015328686
0.08233305
0.03578397
0.061184555
-0.034570582
0.074596055
0.005690281
0.03812265
0.056975286
0.043262575
0.09793958
0.035664905
0.061177105
-0.00978202
-0.07986349
0.026608514
0.0763106
-0.08177627
0.0712422
0.028911622
0.07238584
0.06859912
-0.0703297
-0.0054917955
0.03641793
-0.04830961
-0.017747862
-0.0818737
-0.054606274
-0.03674974
0.04639981
0.05052662
-0.03274101
0.026277417
0.0010024493
-0.05028289
0.045551024
-0.007314263
0.012176967
-0.068594925
0.06708203
-0.028989965
0.06723382
0.011153573
-0.048742212
0.06059132
-0.0007451068
-0.003984784
0.06946764
0.079918854
-0.0037124304
0.008563179
-0.048657555
0.028619094
0.00660981
-0.043590207
-0.01272825
0.03312282
0.037442215
0.0009684423
-0.088726476
0.01199866
0.10234411
-0.09276656
-0.031982142
-0.034732126
0.012448118
-0.061006412
0.030197782
0.073074795
0.010358254
-0.056120805
-0.06791707
0.0035306537
0.10592927
0.00783336
-0.056909803
-0.07709684
0.048073366
0.043149047
0.057004582
-0.015637781
-0.07354287
-0.04222038
0.068970636
-0.040616754
-0.026997158
0.073644966
0.08042404
-0.032518227
-0.051059622
-0.07747087
-0.052141156
0.0013274507
0.05818164
-0.02983265
0.038607523
-0.011701017
-0.06916058
0.09432911
-0.022362726
-0.047029547
-0.052666776
-0.09404323
0.035666496
0.07500226
0.00075813796
0.019853555
-0.063041955
-0.030679375
0.027091248
0.056645237
-0.05974399
-0.031367816
-0.07653701
-0.054533098
0.03492154
-0.026873928
0.06888048
-0.07739325
0.008070403
-0.02082702
-0.009420386
0.028608529
-0.046308283
-0.07370389
0.06862588
0.04938157
-0.008553011
0.014583062
-0.04201084
0.044201206
-0.020605715
-0.039620686
-0.03988863
0.06378457
-0.0457342
0.06368731
-0.07887677
-0.038193744
-0.09290857
0.004670787
-0.08420021
-0.074184895
-0.09865072
-0.04765368
-0.005477281
0.022484755
0.044565376
0.06620796
0.04671818
-0.03316242
0.023745287
-0.04107551
0.08862143
-0.08191036
-0.064803116
-0.029464537
-0.06626151
0.012420224
0.028200196
-0.039500542
0.07331623
-0.0592819
0.046517313
0.08277419
0.046139784
0.019469148
0.04333829
-0.0055055437
-0.013227764
-0.06107068
0.07149672
0.030937662
-0.00039939315
-0.036178414
-0.043353543
0.038345885
-0.0055290638
0.0132860225
-0.013032965
-0.027324276
0.08489809
-0.06280176
-0.041535124
0.054729
0.073943995
0.07759338
0.040329278
0.06429791
0.08690098
0.014874031
0.09065372
-0.04688976
0.10274589
0.051796462
0.0059583825
-0.05853043
-0.08260699
-0.058736045
-0.036346816
-0.0367362
0.031220682
-0.065461054
0.020952333
0.0019037352
0.012502999
-0.058680546
-0.028859321
-8.910349e-05
0.06104292
-0.03922787
0.0039492464
-0.005000016
0.047142413
0.07654858
-0.0476493
-0.06311423
0.033414155
-0.06944706
-0.004904732
-0.003954642
-0.06952367
0.050423305
0.01207486
-0.003038129
-0.026413476
-0.012351775
-0.07475226
0.010656803
0.05511038
0.06882644
-0.04591238
-0.024675505
-0.025240226
0.07320963
0.01296193
-0.06514668
0.038838334
-0.038384
-0.07236579
-0.0606635
-0.09618142
-0.03894513
-0.0042204787
0.10420392
-0.02212432
0.031971816
0.03394988
0.010318692
0.019135786
-0.08003001
-0.02499352
-0.022102723
-0.040478833
-0.057750642
-0.013844137
-0.05968031
0.0607213
-0.01573132
0.09192591
-0.035115793
-0.054161083
-0.017103452
0.07577513
-0.0050263004
0.020789726
0.020540487
0.036269255
-0.06693001
-0.013179914
-0.024439521
0.08201927
0.03740301
0.07367009
0.05444479
0.05492494
-0.049408704
-0.045271177
0.06432689
0.0749223
0.022931168
-0.070042565
0.024304137
0.07370734
0.03937497
-0.06872845
0.031205969
0.026177078
-0.052785497
0.08661562
0.091029115
0.015542658
-0.026905172
0.03566252
-0.002324132
-0.08521869
0.10805337
-0.069442436
0.025195591
0.08161133
-0.022053238
0.019380825
0.018881368
0.037591774
0.047199894
0.020669475
-0.026874453
0.004594721
0.09423165
0.028569387
-0.03900637
0.06710247
0.041380264
-0.026432684
0.094408445
0.0399395
0.096806586
-0.060468215
-0.0011059038
0.054842643
0.07170898
0.0618007
0.0025290188
0.029861322
-0.06232789
